5.025704503059387207e-01,-9.333724156022071838e-03,3.293817043304443359e-01,-6.381773948669433594e-02,6.877146661281585693e-02,2.150242626667022705e-01,-4.654613435268402100e-01,2.137072086334228516e-01,-2.471134960651397705e-01,-1.181299686431884766e-01,-5.088654756546020508e-01,2.646821737289428711e-01,-2.889313995838165283e-01,-3.621796369552612305e-01,4.370004832744598389e-01,4.125325679779052734e-01,5.090140700340270996e-01,3.724803328514099121e-01,5.052146911621093750e-01,-1.611955463886260986e-01,-3.121263980865478516e-01,5.177842080593109131e-02,2.368494682013988495e-02,-1.173709146678447723e-02,-2.514709234237670898e-01,3.136318624019622803e-01,4.256678521633148193e-01,-2.423610687255859375e-01,1.582693308591842651e-01,4.942671656608581543e-01,-1.662160605192184448e-01,-5.287905037403106689e-02,-8.708983659744262695e-02,-3.284864127635955811e-01,-1.708917766809463501e-01,-3.582140430808067322e-02,-4.290584921836853027e-01,3.745184838771820068e-01,1.885759830474853516e-01,7.201807200908660889e-02,4.387194216251373291e-01,-2.844754457473754883e-01,-1.510564237833023071e-02,2.633148133754730225e-01,4.619042277336120605e-01,2.171825468540191650e-01,3.702324926853179932e-01,-3.208768963813781738e-01,1.462247967720031738e-01,3.437566757202148438e-01
