2.773987948894500732e-01,2.720924019813537598e-01,-1.594145298004150391e-01,2.514286637306213379e-01,1.658857613801956177e-01,3.742296397686004639e-01,-7.380735129117965698e-02,-1.227364838123321533e-01,4.286344945430755615e-01,-9.383432567119598389e-03,-6.796314567327499390e-02,4.815240800380706787e-01,3.137978017330169678e-01,1.527394950389862061e-01,-3.762014806270599365e-01,-3.235274553298950195e-01,-9.533102065324783325e-02,-2.816779911518096924e-01,-2.576611340045928955e-01,-5.728240683674812317e-02,5.236413702368736267e-02,1.799988448619842529e-01,-3.543146699666976929e-02,2.325473427772521973e-01,5.362710952758789062e-01,1.191824078559875488e-01,-2.653607428073883057e-01,-2.336892187595367432e-01,1.954733580350875854e-01,2.407215088605880737e-01,1.448121666908264160e-01,2.954972684383392334e-01,-2.741771936416625977e-01,2.895135283470153809e-01,-2.664706110954284668e-01,-1.721931695938110352e-01,3.072993457317352295e-01,-1.246330738067626953e-01,-3.034475743770599365e-01,-3.593444824218750000e-01,-3.856887817382812500e-01,-2.431354075670242310e-01,-3.909805119037628174e-01,1.108090206980705261e-01,1.442092806100845337e-01,9.239054471254348755e-02,-4.871499165892601013e-02,-1.308408081531524658e-01,4.921409785747528076e-01,3.899986445903778076e-01
