-9.749432802200317383e-01,9.008452892303466797e-01,-2.035811245441436768e-01,7.781224846839904785e-01,-8.332238197326660156e-01,9.212911128997802734e-01,6.351581215858459473e-01,7.674784064292907715e-01,6.126340627670288086e-01,-5.966905951499938965e-01,-2.907592952251434326e-01,-4.562290608882904053e-01,-7.709076404571533203e-01,6.221159696578979492e-01,-8.971785753965377808e-02,2.137089818716049194e-01,-9.359394907951354980e-01,3.104293584823608398e+00,-9.349774122238159180e-01,8.174473047256469727e-01,1.018609642982482910e+00,-2.406135201454162598e-01,-3.556288778781890869e-01,9.266172647476196289e-01,-8.637864589691162109e-01,-1.680720895528793335e-01,-5.326428413391113281e-01,1.078853458166122437e-01,6.405504941940307617e-01,2.319800853729248047e-01,-1.576435327529907227e+00,-2.972169220447540283e-01,1.244518637657165527e+00,-7.597158551216125488e-01,1.324729084968566895e+00,5.373802781105041504e-01,2.755097746849060059e-01,-7.169269919395446777e-01,-6.018795371055603027e-01,-1.059557676315307617e+00,-1.845094263553619385e-01,-2.887333333492279053e-01,-6.895084381103515625e-01,2.555242553353309631e-02,2.050046682357788086e+00,6.660176515579223633e-01,1.288477063179016113e+00,-4.025947749614715576e-01,1.975491046905517578e+00,1.138801813125610352e+00,2.261985279619693756e-02,-2.559762954711914062e+00,-9.330049753189086914e-01,-4.426621496677398682e-01,1.436312347650527954e-01,-1.597928285598754883e+00,-1.096698164939880371e+00,7.606877088546752930e-01,-3.714812994003295898e-01,1.715985685586929321e-01,6.729628443717956543e-01,-1.234052419662475586e+00,-4.056711196899414062e-01,2.814524434506893158e-02,9.179723858833312988e-01,8.636262416839599609e-01,1.469729691743850708e-01,1.805468350648880005e-01,-3.746388554573059082e-01,-4.201207756996154785e-01,-1.929819822311401367e+00,2.144901752471923828e-01,1.019265890121459961e+00,4.141626954078674316e-01,1.511623382568359375e+00,-2.864075005054473877e-01,-1.688703656196594238e+00,-1.107771322131156921e-01,-2.419159114360809326e-01,4.101351499557495117e-01,1.760361641645431519e-01,-1.069442033767700195e-01,1.427602022886276245e-01,-9.814183712005615234e-01,2.211318612098693848e-01,-9.648845195770263672e-01,1.316088438034057617e+00,-1.354751348495483398e+00,-7.932204008102416992e-01,-3.440616846084594727e+00,-4.974980056285858154e-01,1.493442893028259277e+00,-5.147647857666015625e-01,2.049005508422851562e+00,-2.386122643947601318e-01,2.172260999679565430e+00,6.525893211364746094e-01,-5.285907387733459473e-01,2.423565626144409180e+00,-6.511808037757873535e-01,-3.387997150421142578e+00,5.063744187355041504e-01,2.235910415649414062e+00,2.468099117279052734e+00,-4.285317420959472656e+00,-1.703179597854614258e+00,1.092279076576232910e+00,-1.145918488502502441e+00,2.433113336563110352e+00,-3.209279060363769531e+00,-7.758114933967590332e-01,-5.683514595031738281e+00,8.748266696929931641e-01,1.146605849266052246e+00,2.136821985244750977e+00,-1.490840911865234375e+00,-1.080381751060485840e+00,-8.693924903869628906e+00,9.550024867057800293e-01,-9.013763070106506348e-01,-4.397005081176757812e+00,-9.411994814872741699e-01,-1.541094541549682617e+00,5.577402710914611816e-01,-1.526349425315856934e+00,8.592382073402404785e-01,-5.455739423632621765e-02,-1.196580290794372559e+00,7.064114570617675781e+00,1.714633852243423462e-01,-3.549581527709960938e+00,-9.399513602256774902e-01,-3.482338488101959229e-01,2.284481763839721680e+00,-8.361138701438903809e-01,6.025924682617187500e+00,-8.148186802864074707e-01,-9.582887887954711914e-01,-1.121674537658691406e+00,-1.685551762580871582e+00,-1.789501905441284180e-01,1.038298726081848145e+00,-1.265264630317687988e+00,7.994344830513000488e-01,8.578833341598510742e-01,1.538344383239746094e+00,3.322913646697998047e+00,2.076056241989135742e+00,3.275405883789062500e+00,5.679928660392761230e-01,-8.803977370262145996e-01,-1.183135271072387695e+00,1.321229457855224609e+00,-1.270409822463989258e-01,-9.218308329582214355e-01,1.617886126041412354e-01,-3.512674868106842041e-01,7.012577652931213379e-01,-9.938291311264038086e-01,-1.474226355552673340e+00,-7.031471133232116699e-01,-9.563126564025878906e-01,1.343069911003112793e+00,5.938651561737060547e-01,-2.368337363004684448e-01,1.029687166213989258e+00,-7.274010181427001953e-01,-8.636336773633956909e-02,1.080753207206726074e+00,5.262442678213119507e-02,-1.965348482131958008e+00,-4.665917530655860901e-02,4.236018359661102295e-01,-1.375087022781372070e+00,8.301481604576110840e-01,1.213246226310729980e+00,-1.009798049926757812e+00,-6.810559630393981934e-01,-7.350616455078125000e-01,4.890453815460205078e-01,-2.303221076726913452e-01,-5.031723976135253906e-01,1.015732169151306152e+00,-9.823735952377319336e-01,1.118704199790954590e+00,-6.230260133743286133e-01,1.048949480056762695e+00,-1.278872728347778320e+00,-1.090314388275146484e+00,-1.257144093513488770e+00,-1.506546378135681152e+00,9.397627115249633789e-01,-8.192341923713684082e-01,1.002543687820434570e+00,-2.187551259994506836e+00,1.115928292274475098e+00,7.509551942348480225e-02,1.460625529289245605e-01,6.246169209480285645e-01,8.000687360763549805e-01
