-7.114887833595275879e-01
-1.072012260556221008e-01
-1.080219000577926636e-01
6.465374827384948730e-01
8.989552035927772522e-03
-4.186948537826538086e-01
3.663212656974792480e-01
5.211783573031425476e-02
-2.849787175655364990e-01
-3.209667503833770752e-01
-1.738502234220504761e-01
-4.655102193355560303e-01
-3.187575638294219971e-01
7.900145649909973145e-01
6.239917874336242676e-01
-4.933444261550903320e-01
-1.139917448163032532e-01
2.625066339969635010e-01
-3.588556647300720215e-01
1.887312531471252441e-01
2.314726263284683228e-02
-7.021907716989517212e-02
-2.504445612430572510e-01
-5.390387177467346191e-01
-5.775012448430061340e-02
-6.016811132431030273e-01
-6.410102248191833496e-01
1.532379388809204102e-01
-8.761696517467498779e-03
4.534475505352020264e-01
-7.714364677667617798e-02
4.671402275562286377e-02
-4.299061596393585205e-01
2.705366909503936768e-02
-7.082324028015136719e-01
-1.005135774612426758e-01
1.180506311357021332e-02
-1.686645895242691040e-01
-4.063301980495452881e-01
-1.438580751419067383e-01
-4.125354290008544922e-01
2.724485099315643311e-01
-2.012266963720321655e-01
8.662083186209201813e-03
8.037298917770385742e-02
2.130903601646423340e-01
1.630880683660507202e-01
5.597765743732452393e-02
2.456922531127929688e-01
6.029867529869079590e-01
