7.345699071884155273e-01,2.071305736899375916e-02,1.160136938095092773e+00,-1.166306614875793457e+00,-7.904127240180969238e-01,-5.045221447944641113e-01,-5.144071578979492188e-01,1.817916184663772583e-01,1.767941564321517944e-01,-3.643083870410919189e-01,2.836956679821014404e-01,1.383804976940155029e-01,5.694643259048461914e-01,-1.680839955806732178e-01,3.586544468998908997e-02,6.146969199180603027e-01,-7.245624065399169922e-02,-6.304579377174377441e-01,2.362608909606933594e-01,-2.050813734531402588e-01,-5.828828811645507812e-01,-2.075542211532592773e-01,-6.494472026824951172e-01,-4.701142609119415283e-01,8.566071987152099609e-01,3.921698331832885742e-01,1.520993828773498535e+00,2.240322083234786987e-01,-1.626817733049392700e-01,-2.738727331161499023e-01,3.546558320522308350e-01,2.667209506034851074e-01,1.246403932571411133e+00,-9.230880439281463623e-02,-2.594750225543975830e-01,-3.949610292911529541e-01,5.684366226196289062e-01,-2.661527395248413086e-01,-9.653590321540832520e-01,-3.467425405979156494e-01,3.156896233558654785e-01,1.817766904830932617e+00,9.003204703330993652e-01,6.313024163246154785e-01,1.881691813468933105e-01,1.089828372001647949e+00,-1.289602398872375488e+00,-4.261321201920509338e-02,-8.823264241218566895e-01,-1.399262428283691406e+00,6.301663070917129517e-02,5.537481307983398438e-01,8.111849427223205566e-01,-4.793607890605926514e-01,-9.012077748775482178e-02,7.265986204147338867e-01,-2.618032693862915039e-01,3.637799918651580811e-01,-1.283456832170486450e-01,-1.476635634899139404e-01,-2.337704449892044067e-01,5.878696441650390625e-01,5.898128151893615723e-01,4.816243052482604980e-01,4.877709150314331055e-01,2.212465703487396240e-01,1.827286481857299805e-01,7.319062352180480957e-01,3.759936690330505371e-01,-7.026100158691406250e-02,-3.014730848371982574e-02,-4.056132435798645020e-01,-1.176508307456970215e+00,-1.372584104537963867e-01,1.745862513780593872e-01,3.587283790111541748e-01,2.330285072326660156e+00,-2.757341563701629639e-01,6.540918350219726562e-02,2.294528335332870483e-01,1.336882233619689941e+00,-1.833125948905944824e-02,6.164366006851196289e-01,1.251244306564331055e+00,3.053342550992965698e-02,5.987070500850677490e-02,7.988772392272949219e-01,8.160511851310729980e-01,-4.387605488300323486e-01,2.228868901729583740e-01,5.623388886451721191e-01,1.270544767379760742e+00,-1.848431527614593506e-01,2.960168570280075073e-02,-1.427814364433288574e+00,3.556005060672760010e-01,-5.728880763053894043e-01,-1.111811622977256775e-01,-4.672622680664062500e-01,2.252513356506824493e-02,9.329207539558410645e-01,-5.272031296044588089e-03,-1.099654793739318848e+00,1.645626544952392578e+00,-4.068210124969482422e-01,5.190159678459167480e-01,1.019134998321533203e+00,-1.957354992628097534e-01,-1.634769886732101440e-01,3.662990331649780273e-01,2.860077284276485443e-02,5.032682418823242188e-01,-1.359767317771911621e+00,8.665001988410949707e-01,1.083117604255676270e+00,-6.149939298629760742e-01,-3.858018815517425537e-01,2.619483172893524170e-01,-8.691115975379943848e-01,-4.253648519515991211e-01,-5.632072687149047852e-01,6.453405618667602539e-01,-6.522279381752014160e-01,-2.010700464248657227e+00,-2.143200933933258057e-01,-7.228333950042724609e-01,3.032311201095581055e-01,4.663715660572052002e-01,-1.866663396358489990e-01,8.759173154830932617e-01,1.877039313316345215e+00,4.062172770500183105e-01,1.411670565605163574e+00,1.830125153064727783e-01,1.159618273377418518e-01,-2.058379799127578735e-01,1.597050189971923828e+00,5.901592969894409180e-01,-1.025705218315124512e+00,-2.544036149978637695e+00,2.861038446426391602e-01,-2.800269126892089844e-01,8.021911382675170898e-01,-1.089991211891174316e+00,-6.428197622299194336e-01,-3.939179480075836182e-01,1.099634170532226562e+00,-1.664804100990295410e+00,7.200264334678649902e-01,-2.505187988281250000e-01,-3.202535808086395264e-01,1.214301824569702148e+00,-5.859325528144836426e-01,-8.065400123596191406e-01,-3.611818253993988037e-01,1.336956769227981567e-01,-4.109010994434356689e-01,4.909108877182006836e-01,1.185645982623100281e-01,1.610884666442871094e-01,-3.886457383632659912e-01,7.407569885253906250e-02,1.364439278841018677e-01,-6.029568314552307129e-01,2.463196218013763428e-01,7.738158106803894043e-01,-3.623754978179931641e-01,-9.011422395706176758e-01,3.105145096778869629e-01,2.120846807956695557e-01,1.174378752708435059e+00,-1.150165081024169922e+00,-2.531144320964813232e-01,1.109706878662109375e+00,-7.960420846939086914e-01,2.771253585815429688e-01,3.472398966550827026e-02,-7.040186971426010132e-02,9.092056751251220703e-02,4.234956502914428711e-01,-8.957665413618087769e-02,-2.821554541587829590e-01,1.495364904403686523e-01,-9.734943509101867676e-01,-5.554171279072761536e-02,-6.811303496360778809e-01,-1.810369193553924561e-01,-6.378257870674133301e-01,-5.951721072196960449e-01,5.101249814033508301e-01,8.654365688562393188e-02,-4.199601411819458008e-01,-8.045473098754882812e-01,4.086876809597015381e-01,1.041596293449401855e+00,5.647815996780991554e-04,-1.851526051759719849e-01,4.776741862297058105e-01,-3.344563543796539307e-01,-1.281169950962066650e-01
3.536137044429779053e-01,-3.891332447528839111e-01,-3.561158776283264160e-01,-5.167257785797119141e-01,-8.558241724967956543e-01,-1.709977746009826660e+00,-3.328766822814941406e-01,-1.424440622329711914e+00,1.066137626767158508e-01,-9.188243150711059570e-01,-1.188009142875671387e+00,1.589989662170410156e+00,-4.600303471088409424e-01,3.034739792346954346e-01,-1.522376179695129395e+00,-2.164349079132080078e+00,-3.299023807048797607e-01,-1.678557515144348145e+00,-1.229536533355712891e+00,-6.132468208670616150e-02,-6.595152616500854492e-01,3.642959296703338623e-01,-1.382679104804992676e+00,-3.484036326408386230e-01,-7.618734836578369141e-01,-1.100379705429077148e+00,-5.849610567092895508e-01,6.573772430419921875e-01,-1.378336787223815918e+00,1.490075945854187012e+00,2.473641037940979004e-01,1.808005571365356445e-01,-1.130947947502136230e+00,-8.641527295112609863e-01,1.588412761688232422e+00,-1.399660825729370117e+00,-3.289378881454467773e+00,7.434152811765670776e-02,-7.157070040702819824e-01,4.790866002440452576e-02,2.478692494332790375e-02,7.780438661575317383e-02,3.261378109455108643e-01,2.455449253320693970e-01,1.306661814451217651e-01,-1.170384168624877930e+00,-3.489953279495239258e-01,8.066290020942687988e-01,6.267781853675842285e-01,5.729268789291381836e-01,6.749390363693237305e-01,-2.510833442211151123e-01,4.511988461017608643e-01,1.482375264167785645e+00,-2.703107893466949463e-01,-1.147347331047058105e+00,-1.770497560501098633e-01,-4.602860212326049805e-01,7.016134262084960938e-01,-8.741202950477600098e-02,-6.372263431549072266e-01,-1.257965266704559326e-01,-7.219845056533813477e-01,-7.085536122322082520e-01,-2.045330047607421875e+00,-2.194460153579711914e+00,1.439975649118423462e-01,1.627292782068252563e-01,9.874507039785385132e-02,1.034055650234222412e-01,1.957159876823425293e+00,5.357112884521484375e-01,-1.834864728152751923e-02,-7.666523754596710205e-02,-6.900818645954132080e-02,1.923103816807270050e-02,-3.388502597808837891e-01,6.006356477737426758e-01,3.043027222156524658e-01,1.659987568855285645e+00,7.308092713356018066e-01,1.381257921457290649e-01,5.937430262565612793e-01,4.275709390640258789e-01,8.309456706047058105e-01,1.885606884956359863e+00,-2.668083429336547852e+00,-2.268427759408950806e-01,3.296082019805908203e-01,5.480895638465881348e-01,-8.777053952217102051e-01,3.717746958136558533e-02,4.977847039699554443e-01,3.120368123054504395e-01,2.336902171373367310e-01,6.653227843344211578e-03,3.390647172927856445e-01,1.081814169883728027e+00,-6.001850366592407227e-01,7.404466718435287476e-02,-6.414598226547241211e-02,-1.058635830879211426e+00,4.417515695095062256e-01,-3.995746672153472900e-01,-2.771330475807189941e-01,3.227580487728118896e-01,-3.911112248897552490e-02,1.947119235992431641e-01,-7.264271378517150879e-01,1.352446317672729492e+00,-3.939829766750335693e-01,1.975781768560409546e-01,4.181277379393577576e-02,4.548673927783966064e-01,2.111006975173950195e+00,-6.160978078842163086e-01,5.440104007720947266e-01,7.022764682769775391e-01,4.526144266128540039e-01,1.522123813629150391e-01,-3.449556827545166016e-01,1.151284933090209961e+00,2.602164745330810547e-01,3.159242495894432068e-02,-6.379749178886413574e-01,8.381559848785400391e-01,-8.306325078010559082e-01,-7.309263944625854492e-01,-4.471850022673606873e-02,9.961381554603576660e-01,-1.494162321090698242e+00,7.349442839622497559e-01,2.906097173690795898e-01,-7.981978654861450195e-01,-1.051913738250732422e+00,-2.276020497083663940e-01,-2.128270864486694336e+00,7.797191739082336426e-01,-6.495736241340637207e-01,1.175362944602966309e+00,-5.158495306968688965e-01,-3.978123068809509277e-01,5.011608451604843140e-02,1.274428367614746094e-01,3.045509159564971924e-01,-1.830877512693405151e-01,-9.736597537994384766e-01,6.339491605758666992e-01,-7.120572924613952637e-01,1.311248183250427246e+00,-3.444340229034423828e-01,2.467981278896331787e-01,1.240557551383972168e+00,-6.061301231384277344e-01,-6.626955866813659668e-01,-1.248996853828430176e+00,-5.435319542884826660e-01,-6.941713690757751465e-01,5.129930796101689339e-04,-2.491256237030029297e+00,-1.051718115806579590e+00,-8.188437670469284058e-02,-5.058847069740295410e-01,-1.260156035423278809e-01,-1.786838293075561523e+00,-5.986550450325012207e-01,-9.284770488739013672e-01,-5.027302503585815430e-01,-5.397514104843139648e-01,9.505593776702880859e-01,2.755133509635925293e-01,-1.820404380559921265e-01,-1.800686836242675781e+00,8.343613743782043457e-01,1.063143849372863770e+00,1.056979417800903320e+00,6.408135890960693359e-01,-1.024975441396236420e-02,1.720565557479858398e-01,-9.488057345151901245e-02,-1.777942925691604614e-01,5.263742804527282715e-01,-3.067895770072937012e-01,-1.345761656761169434e+00,-9.611678123474121094e-02,-1.532089710235595703e-01,-3.595314621925354004e-01,-5.066767930984497070e-01,-4.303144216537475586e-01,5.580831319093704224e-02,-5.657135248184204102e-01,1.032744526863098145e+00,-2.205757051706314087e-01,-6.143031120300292969e-01,-2.009899377822875977e+00,1.053123712539672852e+00,-3.615043759346008301e-01,9.285808801651000977e-01,2.157983332872390747e-01,5.377828478813171387e-01
-9.277681708335876465e-01,-1.094498157501220703e+00,1.645472884178161621e+00,1.530273556709289551e+00,1.835582375526428223e+00,2.722637355327606201e-01,5.744603872299194336e-01,1.990570545196533203e+00,3.871833086013793945e-01,2.512205123901367188e+00,-2.933801524341106415e-02,-1.167434096336364746e+00,1.752702951431274414e+00,-6.988971233367919922e-01,-1.848472207784652710e-01,4.708748161792755127e-01,-1.234471797943115234e+00,1.771911263465881348e+00,6.383852958679199219e-01,1.585059285163879395e+00,-1.088503360748291016e+00,1.271634936332702637e+00,-2.827335894107818604e-01,1.619430780410766602e-01,2.995288670063018799e-01,2.063772916793823242e+00,3.361694216728210449e-01,-8.418413251638412476e-02,-6.417948603630065918e-01,4.788539707660675049e-01,1.404015123844146729e-01,6.936977505683898926e-01,8.175247907638549805e-01,9.167674183845520020e-01,-1.663802117109298706e-01,-3.501445055007934570e-01,4.591293036937713623e-01,5.735222697257995605e-01,2.795422673225402832e-01,5.877592563629150391e-01,4.602578282356262207e-01,3.286832198500633240e-02,-6.252210140228271484e-01,4.990980923175811768e-01,5.104706883430480957e-01,1.000224471092224121e+00,-5.859628915786743164e-01,1.063096404075622559e+00,-1.733901351690292358e-01,-3.152229189872741699e-01,-4.766928255558013916e-01,-1.252953767776489258e+00,-2.142546772956848145e-01,-7.567185163497924805e-02,5.357394218444824219e-01,-1.773123629391193390e-02,-5.570560693740844727e-01,4.200491607189178467e-01,1.008653938770294189e-01,3.161109924316406250e+00,4.020044207572937012e-01,-8.831900954246520996e-01,-3.425073921680450439e-01,1.695995211601257324e+00,7.138464450836181641e-01,1.255779743194580078e+00,4.167785644531250000e-01,1.968458145856857300e-01,-1.328799724578857422e+00,1.463828682899475098e+00,-5.948950052261352539e-01,5.174764990806579590e-01,-4.817531704902648926e-01,7.869061827659606934e-02,-8.899167180061340332e-02,-1.043525934219360352e+00,-3.482550084590911865e-01,8.949068784713745117e-01,-7.418432831764221191e-01,1.910196542739868164e-01,-6.142820119857788086e-01,2.260570049285888672e+00,-5.127564668655395508e-01,4.121549129486083984e-01,-2.758112549781799316e-01,-8.519191741943359375e-01,-1.063552618026733398e+00,-7.047522813081741333e-02,3.388120830059051514e-01,1.400374174118041992e-01,4.063150286674499512e-02,3.451239168643951416e-01,-1.339271306991577148e+00,5.859872698783874512e-02,6.081917881965637207e-01,9.028482437133789062e-01,-3.442672193050384521e-01,1.952298045158386230e+00,5.329951643943786621e-01,-1.199965357780456543e+00,6.522555351257324219e-01,-5.517575144767761230e-01,9.865475296974182129e-01,-8.556162714958190918e-01,4.572294056415557861e-01,-6.203379109501838684e-02,1.835337132215499878e-01,-2.202853262424468994e-01,5.207433551549911499e-02,2.985837161540985107e-01,-3.994054198265075684e-01,-3.226920366287231445e-01,-1.519173476845026016e-02,-3.089947439730167389e-02,1.334515661001205444e-01,3.184779882431030273e-01,3.518150746822357178e-01,-2.712767422199249268e-01,1.104755997657775879e+00,-9.000900983810424805e-01,3.051923513412475586e-01,-1.754445284605026245e-01,-3.506922721862792969e-01,-7.847244739532470703e-01,2.695908844470977783e-01,3.595238327980041504e-01,-9.161660671234130859e-01,2.413648813962936401e-01,-2.824612334370613098e-02,-2.376469820737838745e-01,4.208066165447235107e-01,-7.933206856250762939e-02,9.308963418006896973e-01,-7.086274772882461548e-02,2.436152100563049316e-01,-1.203521490097045898e-01,3.773130476474761963e-01,5.812632441520690918e-01,3.969846665859222412e-01,-4.731335043907165527e-01,1.421407341957092285e+00,-4.721918106079101562e-01,-1.101513624191284180e+00,-2.770430147647857666e-01,1.640163594856858253e-03,2.066263705492019653e-01,-1.029981225728988647e-01,3.907437622547149658e-01,6.425014734268188477e-01,-1.259039640426635742e+00,-1.429171115159988403e-01,1.240603446960449219e+00,-4.639315605163574219e-01,-1.135481238365173340e+00,2.114559888839721680e+00,-6.937191486358642578e-01,-1.431950032711029053e-01,3.485862910747528076e-01,-5.064923167228698730e-01,8.300321102142333984e-01,6.438707709312438965e-01,-8.169413208961486816e-01,-3.710834681987762451e-01,1.333905011415481567e-01,-3.444890379905700684e-01,-2.457488030195236206e-01,1.181580781936645508e+00,5.302414298057556152e-01,4.688870310783386230e-01,4.918710887432098389e-01,4.338007047772407532e-02,-4.293810427188873291e-01,-2.949998080730438232e-01,1.344652622938156128e-01,1.814336180686950684e-01,-1.394332766532897949e+00,2.653428912162780762e-01,3.149874508380889893e-01,-1.359032117761671543e-03,2.261604815721511841e-01,5.589433312416076660e-01,1.309388637542724609e+00,1.421274662017822266e+00,9.101118445396423340e-01,-1.653653532266616821e-01,8.131354451179504395e-01,1.231905341148376465e+00,5.083857178688049316e-01,-5.862259268760681152e-01,2.068988531827926636e-01,2.209612727165222168e-01,3.276006281375885010e-01,4.393279254436492920e-01,-6.280514001846313477e-01,-6.688471883535385132e-02,-3.215989097952842712e-02,1.009846806526184082e+00,1.222190737724304199e+00,-1.657723784446716309e-01,-2.819647789001464844e-01
-3.101952970027923584e-01,7.226455807685852051e-01,4.321109652519226074e-01,-1.970910429954528809e-01,-5.912398099899291992e-01,-6.585084199905395508e-01,2.260701179504394531e+00,-4.130384027957916260e-01,9.612907767295837402e-01,9.846600890159606934e-01,1.014096260070800781e+00,-1.142774969339370728e-01,-1.392639130353927612e-01,5.410258769989013672e-01,-9.060565829277038574e-01,-3.174322843551635742e-01,-4.767700731754302979e-01,-8.884030580520629883e-01,-5.647340416908264160e-01,1.121004343032836914e+00,-1.300096154212951660e+00,1.577114462852478027e-01,2.439066618680953979e-01,5.803916454315185547e-01,3.986131027340888977e-02,3.934841454029083252e-01,1.063029170036315918e+00,-8.042795211076736450e-02,5.521690249443054199e-01,7.568752765655517578e-01,6.276569962501525879e-01,1.654501676559448242e+00,-2.010837942361831665e-01,-2.225473880767822266e+00,2.497496306896209717e-01,-1.140436172485351562e+00,2.033489942550659180e-01,2.661369442939758301e-01,-1.256909608840942383e+00,9.039974808692932129e-01,9.737443178892135620e-02,8.550037443637847900e-02,1.295554041862487793e+00,-2.153434306383132935e-01,-7.688193768262863159e-02,-1.022745847702026367e+00,-2.134758830070495605e-01,-3.638745546340942383e-01,-7.119991630315780640e-02,1.196332454681396484e+00,-3.079818785190582275e-01,9.798102378845214844e-01,-3.996490240097045898e-01,1.468754261732101440e-01,2.542611062526702881e-01,-1.814762234687805176e+00,1.300546646118164062e+00,-1.012717604637145996e+00,-2.374096959829330444e-01,8.053768873214721680e-01,3.298016786575317383e-01,-6.024410948157310486e-02,-8.554597496986389160e-01,-1.596711724996566772e-01,2.787269651889801025e-01,8.785952329635620117e-01,9.919177889823913574e-01,4.754891097545623779e-01,-2.659364938735961914e-01,5.331465601921081543e-01,-1.164959311485290527e+00,1.460148811340332031e+00,-1.565677672624588013e-01,6.492623686790466309e-01,-7.257329821586608887e-01,-2.120590209960937500e-01,6.568447947502136230e-01,-2.781118452548980713e-01,5.161010622978210449e-01,-1.938200592994689941e-01,-7.723479866981506348e-01,1.158012509346008301e+00,-4.549597501754760742e-01,-9.106909036636352539e-01,1.708222478628158569e-01,1.051691174507141113e+00,2.089830875396728516e+00,-1.073429703712463379e+00,-8.471217751502990723e-01,-3.531343042850494385e-01,2.872010171413421631e-01,-1.037134408950805664e+00,-1.138191819190979004e+00,-8.154286742210388184e-01,-8.466569185256958008e-01,7.304599881172180176e-01,-1.285860985517501831e-01,-8.856998682022094727e-01,-3.053181432187557220e-02,-6.096510887145996094e-01,-1.337546855211257935e-01,7.272104620933532715e-01,1.721920222043991089e-01,5.429040174931287766e-03,-2.769492864608764648e-01,-5.002244114875793457e-01,-8.223697543144226074e-01,-1.199491471052169800e-01,-9.245166778564453125e-01,6.944807618856430054e-02,-8.203880488872528076e-02,-3.308394253253936768e-01,1.388132572174072266e+00,3.943192362785339355e-01,-1.520174592733383179e-01,-1.372324466705322266e+00,-2.458740621805191040e-01,-5.910378098487854004e-01,-5.000963807106018066e-01,2.962115593254566193e-02,2.424090169370174408e-03,5.361966490745544434e-01,2.890896499156951904e-01,-4.042681772261857986e-03,-8.624905347824096680e-02,6.349062919616699219e-01,1.469903439283370972e-02,-7.934172749519348145e-01,-1.778081059455871582e-01,-2.408835738897323608e-01,-6.684583425521850586e-01,-4.104759544134140015e-02,5.435113906860351562e-01,7.662010788917541504e-01,-1.559899687767028809e+00,4.096832275390625000e-01,3.281590044498443604e-01,-8.756004571914672852e-01,9.849736094474792480e-02,1.455162465572357178e-01,-2.580261945724487305e+00,8.203253149986267090e-01,-1.110517978668212891e-01,1.011967062950134277e+00,2.104130685329437256e-01,2.447668313980102539e-01,-1.010173782706260681e-01,-1.160647943615913391e-01,-1.119483709335327148e+00,1.676617503166198730e+00,8.065602928400039673e-02,-6.435525417327880859e-01,5.138363242149353027e-01,2.410792708396911621e-01,1.595953404903411865e-01,-1.297660619020462036e-01,6.438796520233154297e-01,-5.119900703430175781e-01,8.907723426818847656e-01,1.870768666267395020e-01,-7.386631518602371216e-02,-1.347863525152206421e-01,-3.247126340866088867e-01,3.566130101680755615e-01,-6.312463879585266113e-01,-1.965387910604476929e-01,-1.573282182216644287e-01,-1.482690215110778809e+00,8.364323526620864868e-02,-3.328908607363700867e-02,-3.672533631324768066e-01,1.944457173347473145e+00,5.451424121856689453e-01,9.521569609642028809e-01,1.172329664230346680e+00,9.013629555702209473e-01,2.733668386936187744e-01,8.018107414245605469e-01,-1.185530185699462891e+00,5.374290347099304199e-01,-1.044839501380920410e+00,1.102354764938354492e+00,-5.108705759048461914e-01,9.486535787582397461e-01,-2.209451943635940552e-01,-1.702951312065124512e+00,3.473208546638488770e-01,7.454661130905151367e-01,-8.362036943435668945e-01,-2.348976023495197296e-02,2.520646527409553528e-02,4.467452466487884521e-01,5.967426300048828125e-01,5.960804820060729980e-01,2.765925824642181396e-01,2.189494371414184570e+00,-5.263108015060424805e-01,9.488289803266525269e-02,-9.490240812301635742e-01,6.208386421203613281e-01
9.541897773742675781e-01,-1.580620288848876953e+00,3.889450132846832275e-01,6.887126713991165161e-02,2.809512317180633545e-01,6.563387513160705566e-01,7.691041827201843262e-01,6.763781905174255371e-01,3.545716404914855957e-01,-3.967862725257873535e-01,-4.053756594657897949e-01,3.329661190509796143e-01,4.845818579196929932e-01,2.572046816349029541e-01,-5.041143298149108887e-02,-1.126367747783660889e-01,-1.342525333166122437e-01,6.787541508674621582e-01,-2.534272968769073486e-01,-1.243488788604736328e+00,1.541818380355834961e-01,-5.748228430747985840e-01,9.895508289337158203e-01,-1.466158509254455566e+00,4.983255863189697266e-01,7.058290839195251465e-01,-1.473406553268432617e+00,-2.178064882755279541e-01,-1.442100286483764648e+00,2.926267683506011963e-01,-7.921250909566879272e-02,1.246413946151733398e+00,1.388525813817977905e-01,1.707778312265872955e-03,-1.240365147590637207e+00,-3.811841607093811035e-01,-1.398285984992980957e+00,-1.618350148200988770e-01,-5.308373570442199707e-01,-9.018567800521850586e-01,-1.164566874504089355e+00,-6.455298978835344315e-03,4.331064820289611816e-01,-4.414116442203521729e-01,-1.650155663490295410e+00,-2.565848350524902344e+00,7.522345334291458130e-02,3.784504234790802002e-01,-8.387719392776489258e-01,-1.137262582778930664e+00,-5.097389221191406250e-01,3.963465392589569092e-01,3.157899081707000732e-01,4.596195816993713379e-01,-4.974064230918884277e-01,4.844243824481964111e-01,-3.651987016201019287e-01,2.512291669845581055e-01,7.442128658294677734e-01,-4.307984560728073120e-02,-5.929096341133117676e-01,-5.181270837783813477e-01,-9.245071411132812500e-01,-3.260099589824676514e-01,-7.920266389846801758e-01,-3.378261625766754150e-01,-2.362371608614921570e-02,-2.843139648437500000e+00,-5.471556186676025391e-01,-1.127363085746765137e+00,-1.191748306155204773e-01,-9.771215915679931641e-01,6.711882948875427246e-01,-5.685361623764038086e-01,-1.078831076622009277e+00,-6.362985968589782715e-01,-8.365473747253417969e-01,-8.430533409118652344e-01,-2.873108983039855957e-01,-3.627608763054013252e-03,-8.482096195220947266e-01,5.556913465261459351e-02,-6.031484007835388184e-01,4.826344251632690430e-01,-1.784225225448608398e+00,-3.714869320392608643e-01,-7.546128630638122559e-01,1.095160961151123047e+00,-7.097257971763610840e-01,2.438500165939331055e+00,3.983674645423889160e-01,-6.943914890289306641e-01,-2.090390175580978394e-01,-4.318661689758300781e-01,-3.976023197174072266e-01,-2.746160268783569336e+00,-9.125342965126037598e-02,1.793663501739501953e-01,-1.380113005638122559e+00,1.092838048934936523e-01,1.683769673109054565e-01,-1.757093667984008789e+00,-8.432062268257141113e-01,-1.120802044868469238e+00,8.115442991256713867e-01,-9.224797487258911133e-01,2.070544101297855377e-02,-2.661285102367401123e-01,2.496088668704032898e-02,-9.387544989585876465e-01,-1.089904755353927612e-01,7.118332982063293457e-01,1.875965356826782227e+00,1.979630589485168457e-01,8.418102264404296875e-01,-4.969572424888610840e-01,-1.084574937820434570e+00,-1.021009445190429688e+00,1.498425245285034180e+00,-1.808592379093170166e-01,1.822163701057434082e+00,-1.350345760583877563e-01,4.922415316104888916e-01,-1.983578056097030640e-01,-1.477785229682922363e+00,-4.206965267658233643e-01,-7.125533223152160645e-01,-4.219702184200286865e-01,1.907321810722351074e-01,2.661653459072113037e-01,5.257880687713623047e-01,-1.872019171714782715e-01,3.640915155410766602e-01,3.835863769054412842e-01,6.352958679199218750e-01,2.180764079093933105e-01,-8.085789084434509277e-01,6.144684553146362305e-01,-1.302434563636779785e+00,1.339686155319213867e+00,-1.131310343742370605e+00,-8.030145764350891113e-01,-4.561128318309783936e-01,-9.697701334953308105e-01,-2.554969787597656250e-01,-1.944632411003112793e+00,-2.490990161895751953e-01,-3.092478811740875244e-01,3.257867097854614258e-01,-1.744720190763473511e-01,2.664068043231964111e-01,7.014410495758056641e-01,4.051879346370697021e-01,1.928521692752838135e-02,1.229730397462844849e-01,7.113135606050491333e-02,6.589893102645874023e-01,-7.901320606470108032e-02,9.390783905982971191e-01,4.269848167896270752e-01,1.061086729168891907e-01,6.519524753093719482e-02,-1.509980857372283936e-01,-2.204336374998092651e-01,-3.507012128829956055e-01,-4.314590096473693848e-01,6.888488531112670898e-01,3.751744925975799561e-01,-2.748213708400726318e-01,-1.197082161903381348e+00,-2.741573750972747803e-01,-9.247879981994628906e-01,8.985815644264221191e-01,1.645164340734481812e-01,-7.202059626579284668e-01,-3.220910578966140747e-02,-8.581205010414123535e-01,-7.015276700258255005e-02,-7.205678820610046387e-01,2.170442640781402588e-01,1.070472121238708496e+00,6.043798923492431641e-01,-7.374062538146972656e-01,4.004324227571487427e-02,-4.829474389553070068e-01,2.279696762561798096e-01,-5.301100015640258789e-01,-4.219469148665666580e-03,-4.059862792491912842e-01,1.989025592803955078e+00,-5.036281347274780273e-01,2.848671972751617432e-01,-3.988322019577026367e-01,-4.314384460449218750e-01,-1.386356502771377563e-01,-2.131694078445434570e+00,-4.603191912174224854e-01,7.322742938995361328e-01,-2.528792619705200195e-01,8.498274683952331543e-01
-1.930752694606781006e-01,-8.807504922151565552e-02,1.072560429573059082e+00,-8.123336434364318848e-01,-2.867101728916168213e-01,-7.564473152160644531e-01,8.492384105920791626e-02,3.088288009166717529e-01,-8.479049801826477051e-01,-1.570031233131885529e-02,-1.306435346603393555e+00,2.657842338085174561e-01,5.271735191345214844e-01,-2.428319215774536133e+00,-5.546236634254455566e-01,2.464808225631713867e-01,-1.433618903160095215e+00,3.303646147251129150e-01,6.066378951072692871e-01,-1.084327176213264465e-01,-8.113629817962646484e-01,-7.292282581329345703e-01,2.576936781406402588e-01,-1.404063224792480469e+00,1.728010535240173340e+00,-1.203123480081558228e-02,2.120562195777893066e-01,6.067553758621215820e-01,-7.415831685066223145e-01,-1.053162217140197754e+00,-2.425575405359268188e-01,-1.414329856634140015e-01,8.822666406631469727e-01,7.988602519035339355e-01,-1.099587380886077881e-01,-1.265733540058135986e-01,1.639656305313110352e+00,-3.696170151233673096e-01,-2.127104282379150391e+00,-1.110733628273010254e+00,1.257725477218627930e+00,1.689069747924804688e+00,1.979579806327819824e+00,2.935771830379962921e-03,-3.571163415908813477e-01,4.464864432811737061e-01,-6.425359845161437988e-01,-2.019119501113891602e+00,-8.134747743606567383e-01,-2.254419028759002686e-02,-1.048493027687072754e+00,6.358799338340759277e-01,-2.108263522386550903e-01,3.533260226249694824e-01,9.109099507331848145e-01,-6.949769854545593262e-01,4.465560615062713623e-01,1.342695474624633789e+00,-1.725280284881591797e+00,-1.195171117782592773e+00,-5.092867612838745117e-01,8.043330311775207520e-01,2.963476181030273438e-01,-1.982851266860961914e+00,2.165086716413497925e-01,4.208028614521026611e-01,-6.216784715652465820e-01,-4.054851233959197998e-01,3.701248466968536377e-01,9.215650558471679688e-01,-2.502782642841339111e-01,-4.976721853017807007e-02,-4.868504106998443604e-01,1.056021526455879211e-01,1.135582447052001953e+00,5.974819064140319824e-01,5.318990945816040039e-01,-1.536340951919555664e+00,4.306757450103759766e-01,-5.742031335830688477e-01,1.393236517906188965e-01,-1.865073852241039276e-02,3.645715117454528809e-01,4.636536836624145508e-01,1.364857107400894165e-01,-7.157229781150817871e-01,2.160450220108032227e+00,1.269203305244445801e+00,-1.812510609626770020e+00,4.198268651962280273e-01,1.025044560432434082e+00,8.287158608436584473e-01,-9.082145243883132935e-02,-1.132634758949279785e+00,-9.785503745079040527e-01,-9.258562326431274414e-02,-6.295739412307739258e-01,-1.485049366950988770e+00,6.860302686691284180e-01,4.611352682113647461e-01,1.157760024070739746e-01,9.822410345077514648e-01,-8.926807641983032227e-01,1.112637400627136230e+00,1.194858193397521973e+00,-2.358561754226684570e-01,-2.454253286123275757e-01,-1.270229816436767578e+00,2.981201112270355225e-01,2.130302041769027710e-01,1.423645019531250000e-01,1.166793942451477051e+00,-5.515751242637634277e-01,3.824543058872222900e-01,6.015522480010986328e-01,2.476269155740737915e-01,-1.045660451054573059e-01,3.720391392707824707e-01,-4.200728982686996460e-02,-9.609906077384948730e-01,-2.742074429988861084e-01,4.736407101154327393e-01,1.403374433517456055e+00,-1.175648570060729980e-01,6.019011735916137695e-01,-6.363689303398132324e-01,-6.282436251640319824e-01,4.997808337211608887e-01,5.597778558731079102e-01,4.515210166573524475e-02,-2.408498376607894897e-01,2.952826023101806641e-01,-9.362407326698303223e-01,-1.411736756563186646e-01,2.778827250003814697e-01,2.655827105045318604e-01,2.478208243846893311e-01,7.308838963508605957e-01,-1.247063994407653809e+00,3.225924968719482422e-01,-1.014070034027099609e+00,-1.288442850112915039e+00,3.563512861728668213e-01,1.236600875854492188e+00,8.001829385757446289e-01,5.374569892883300781e-01,-4.478816390037536621e-01,-6.080486178398132324e-01,1.115548759698867798e-01,2.611947357654571533e-01,-6.895824074745178223e-01,1.424602508544921875e+00,-4.511851966381072998e-01,5.845945328474044800e-02,2.321038842201232910e-01,-7.808210849761962891e-01,-3.555506169795989990e-01,9.119269251823425293e-01,-1.105318427085876465e+00,9.168733358383178711e-01,-1.545361280441284180e+00,1.110171675682067871e+00,-6.856288909912109375e-01,-2.598367691040039062e+00,-2.405524998903274536e-01,3.001407980918884277e-01,-3.335731327533721924e-01,-3.078113198280334473e-01,-5.752301216125488281e-01,7.007209062576293945e-01,6.975435614585876465e-01,-1.894273906946182251e-01,-8.085076808929443359e-01,-8.378956466913223267e-02,7.003511786460876465e-01,6.899992823600769043e-01,-7.379028201103210449e-01,-6.404981017112731934e-02,1.487347930669784546e-01,-4.303051829338073730e-01,-2.219102621078491211e+00,-5.223742723464965820e-01,-1.038428768515586853e-01,3.445226550102233887e-01,6.834312081336975098e-01,-1.948965191841125488e-01,3.672723472118377686e-01,-3.965389430522918701e-01,-1.235314130783081055e+00,1.574149727821350098e-01,5.736187696456909180e-01,-2.051797658205032349e-01,-9.176163077354431152e-01,-7.730528712272644043e-01,4.111032485961914062e-01,8.407568186521530151e-02,-6.418552398681640625e-01,-2.883345186710357666e-01,1.157907247543334961e+00,4.915702342987060547e-01
-1.519958972930908203e-01,5.581859350204467773e-01,-3.257319927215576172e-01,1.103846669197082520e+00,1.659417629241943359e+00,8.192341774702072144e-02,-1.399165630340576172e+00,-9.690964221954345703e-02,1.905663753859698772e-03,5.155885815620422363e-01,-5.064626410603523254e-02,-4.116035699844360352e-01,-6.065045595169067383e-01,2.299287319183349609e-01,5.007702112197875977e-01,1.461747765541076660e+00,-1.615305393934249878e-01,1.073453545570373535e+00,3.934288769960403442e-02,1.650446772575378418e+00,-3.058260679244995117e-01,5.046268701553344727e-01,3.727449476718902588e-01,5.474632382392883301e-01,-2.203241437673568726e-01,2.584986984729766846e-01,2.183311134576797485e-01,-6.229999661445617676e-01,5.221138596534729004e-01,-8.079916834831237793e-01,-2.176220566034317017e-01,-2.370494902133941650e-01,2.033315002918243408e-01,7.957900762557983398e-01,1.269737035036087036e-01,5.570674538612365723e-01,1.810779795050621033e-02,-1.217646300792694092e-01,6.380099654197692871e-01,3.282963633537292480e-01,-1.777568832039833069e-02,-1.194368124008178711e+00,5.111296176910400391e-01,6.239249110221862793e-01,9.939320385456085205e-02,3.718200922012329102e-01,2.337050139904022217e-01,-3.051295280456542969e-01,9.584979712963104248e-02,4.464257061481475830e-01,-3.907989859580993652e-01,1.094518542289733887e+00,-2.549539506435394287e-01,6.152744293212890625e-01,1.901515007019042969e+00,-5.470550060272216797e-02,-1.460387468338012695e+00,-2.482746690511703491e-01,7.631007432937622070e-01,2.120741643011569977e-02,2.269375562667846680e+00,-8.773478120565414429e-02,-1.367003440856933594e+00,9.581658989191055298e-02,4.369946122169494629e-01,5.034730434417724609e-01,-5.065722465515136719e-01,5.748242139816284180e-02,5.888847708702087402e-01,-2.659902572631835938e-01,4.421125352382659912e-01,9.477706253528594971e-02,8.112909793853759766e-01,-5.563292503356933594e-01,-5.907357931137084961e-01,-8.952514529228210449e-01,4.614181518554687500e-01,-2.819371819496154785e-01,1.945818811655044556e-01,-1.090277671813964844e+00,-5.299839973449707031e-01,7.042632102966308594e-01,-9.479068964719772339e-02,-1.543094813823699951e-01,6.789241433143615723e-01,1.108709335327148438e+00,-1.375697255134582520e-01,-1.217089295387268066e-01,4.153883457183837891e-01,8.281103968620300293e-01,3.500075340270996094e-01,-1.582328677177429199e+00,-3.069798052310943604e-01,2.979912050068378448e-02,1.133053898811340332e+00,6.171827912330627441e-01,-2.393281310796737671e-01,-7.650099992752075195e-01,-2.548689246177673340e-01,-1.181638479232788086e+00,-4.052758216857910156e-01,7.673540711402893066e-01,4.684740304946899414e-02,-2.887878566980361938e-02,-3.648384213447570801e-01,-6.874540448188781738e-01,8.616893291473388672e-01,1.761607825756072998e-01,1.609588712453842163e-01,-5.404649972915649414e-01,1.084210798144340515e-01,-2.660773694515228271e-01,-6.476635932922363281e-01,-6.982953548431396484e-01,-1.278379559516906738e+00,2.067946791648864746e-01,3.654142320156097412e-01,-1.129249811172485352e+00,-4.824994802474975586e-01,-3.717683553695678711e-01,1.227031368762254715e-02,-7.167302370071411133e-01,1.046624302864074707e+00,3.277827054262161255e-02,-6.838781237602233887e-01,-3.950484991073608398e-01,5.511418357491493225e-02,2.596464455127716064e-01,-7.362514734268188477e-02,-1.246084794402122498e-01,-6.924449205398559570e-01,2.951565198600292206e-02,-3.372954726219177246e-01,2.209679484367370605e-01,1.135064601898193359e+00,1.041645884513854980e+00,-3.329848051071166992e-01,1.889947354793548584e-01,3.479673564434051514e-01,-4.684753119945526123e-01,5.126367211341857910e-01,3.639204800128936768e-01,5.162349939346313477e-01,-7.291653007268905640e-02,2.568647265434265137e-01,-3.114575743675231934e-01,8.844973444938659668e-01,-5.677840113639831543e-01,1.150851607322692871e+00,-6.520720571279525757e-02,-2.185199856758117676e-01,2.272837609052658081e-01,1.585724055767059326e-01,1.126460790634155273e+00,1.232635140419006348e+00,8.051595091819763184e-02,1.004934590309858322e-02,-9.661514163017272949e-01,5.078439712524414062e-01,1.137348115444183350e-01,6.022555828094482422e-01,-8.488112129271030426e-03,-3.327926695346832275e-01,-1.632614582777023315e-01,3.736937344074249268e-01,8.683726191520690918e-01,1.523199677467346191e-01,1.053722500801086426e+00,6.245055198669433594e-01,-3.554839491844177246e-01,2.423399090766906738e-01,2.132833376526832581e-02,7.785208821296691895e-01,-8.976975679397583008e-01,-5.293916463851928711e-01,-1.039222121238708496e+00,-3.296592235565185547e-01,-4.631589651107788086e-01,1.505281209945678711e+00,-1.027062892913818359e+00,1.210046410560607910e+00,4.725984036922454834e-01,-3.395919799804687500e-01,9.466570019721984863e-01,1.222165822982788086e+00,1.139217019081115723e+00,1.408205389976501465e+00,2.926684916019439697e-01,6.625673919916152954e-02,-5.181922316551208496e-01,4.531763195991516113e-01,-1.143340110778808594e+00,-4.332827925682067871e-01,-8.999129384756088257e-02,8.776038289070129395e-01,7.353448271751403809e-01,1.550253748893737793e+00,-2.182014137506484985e-01,-3.029294498264789581e-02,5.569980740547180176e-01
-4.769592583179473877e-01,1.136853694915771484e+00,-1.219427227973937988e+00,3.482280969619750977e-01,1.969433188438415527e+00,-4.273550510406494141e-01,-8.025335520505905151e-02,3.992086946964263916e-01,-1.367473363876342773e+00,1.362667679786682129e+00,8.128796219825744629e-01,8.917348384857177734e-01,4.387367069721221924e-01,1.366671562194824219e+00,5.944793820381164551e-01,4.778853356838226318e-01,7.987670898437500000e-01,7.075812220573425293e-01,1.374246835708618164e+00,-2.561418414115905762e-01,4.893850684165954590e-01,7.006698250770568848e-01,2.741275131702423096e-01,1.127866029739379883e+00,1.475324630737304688e+00,3.286592662334442139e-01,-6.874754428863525391e-01,-9.785782545804977417e-02,2.986017167568206787e-01,4.634023904800415039e-01,6.970756053924560547e-01,1.006124854087829590e+00,-2.812149822711944580e-01,1.004917263984680176e+00,1.123596906661987305e+00,4.549360573291778564e-01,6.614341139793395996e-01,7.781080603599548340e-01,3.426150679588317871e-01,4.359823465347290039e-01,1.944367438554763794e-01,-3.096110522747039795e-01,-9.808673709630966187e-02,2.810323834419250488e-01,1.492260694503784180e+00,9.760425686836242676e-01,-7.428818345069885254e-01,2.556606769561767578e+00,-2.764022350311279297e-01,-3.489736914634704590e-01,-9.659836888313293457e-01,1.086888670921325684e+00,-1.721804022789001465e+00,-4.088772237300872803e-01,1.216552376747131348e+00,4.751419425010681152e-01,-4.608234167098999023e-01,1.979247033596038818e-01,-1.022828593850135803e-01,-1.854325532913208008e-01,1.196033731102943420e-01,3.848057091236114502e-01,3.323022127151489258e-01,1.714913725852966309e+00,1.717156320810317993e-01,-2.534437179565429688e-01,-8.136170506477355957e-01,-4.132974743843078613e-01,-7.276419997215270996e-01,-1.529811024665832520e+00,4.575411230325698853e-02,-8.463069200515747070e-01,-2.411090135574340820e-01,2.249762043356895447e-02,-6.531541943550109863e-01,-1.426419466733932495e-01,-1.262196660041809082e+00,-3.678604066371917725e-01,3.866643309593200684e-01,4.121298715472221375e-02,1.337027847766876221e-01,-4.946408420801162720e-02,2.799134254455566406e-01,-9.344332814216613770e-01,6.577387452125549316e-01,6.153671741485595703e-01,-6.124843955039978027e-01,-3.411286771297454834e-01,4.338845908641815186e-01,2.350155860185623169e-01,-2.662627995014190674e-01,-1.198887944221496582e+00,-3.426078259944915771e-01,-1.160914301872253418e-01,-1.099957942962646484e+00,3.692662119865417480e-01,3.539225757122039795e-01,7.054682374000549316e-01,3.401020541787147522e-02,-3.581081628799438477e-01,-1.123468041419982910e+00,7.840371131896972656e-01,6.446470022201538086e-01,-8.334168791770935059e-02,-1.404761373996734619e-01,-1.691893696784973145e+00,-3.028668165206909180e-01,-1.381460875272750854e-01,-1.960458993911743164e+00,2.793026268482208252e-01,-2.819200456142425537e-01,-5.464369654655456543e-01,1.399214416742324829e-01,7.251623868942260742e-01,6.943534612655639648e-01,8.563032150268554688e-01,-6.422976851463317871e-01,4.179334342479705811e-01,-3.455276489257812500e-01,1.434281349182128906e+00,9.107983112335205078e-02,1.129985928535461426e+00,-3.211904764175415039e-01,-2.925663292407989502e-01,-8.550658822059631348e-01,1.018415540456771851e-01,-1.070777177810668945e+00,-5.164994001388549805e-01,-5.011547803878784180e-01,5.738917589187622070e-01,-4.545685350894927979e-01,1.146805047988891602e+00,-2.230388402938842773e+00,-8.898484110832214355e-01,-1.547756910324096680e+00,-3.939473330974578857e-01,-6.783301234245300293e-01,1.235314831137657166e-01,-3.891367912292480469e-01,1.430717229843139648e+00,-1.331221699714660645e+00,-2.741079926490783691e-01,-1.528718769550323486e-01,-1.884904980659484863e+00,-5.316948890686035156e-01,4.443609118461608887e-01,-4.088090658187866211e-01,7.155688107013702393e-02,4.665301144123077393e-01,1.296634078025817871e+00,3.380208611488342285e-01,1.985656976699829102e+00,1.952983289957046509e-01,7.344096899032592773e-01,1.394225835800170898e+00,1.346802115440368652e+00,1.767437607049942017e-01,-1.062279790639877319e-01,7.341554760932922363e-01,1.248911976814270020e+00,1.621219664812088013e-01,5.568269491195678711e-01,1.822063922882080078e+00,8.084967732429504395e-01,2.650775909423828125e-01,7.619099617004394531e-01,4.228767454624176025e-01,1.283889055252075195e+00,6.706100702285766602e-01,-2.826702892780303955e-01,6.880203485488891602e-01,-6.131932139396667480e-01,9.229443222284317017e-02,-5.560570359230041504e-01,3.007332682609558105e-01,4.160821437835693359e-01,-3.551587164402008057e-01,7.595008611679077148e-01,4.710990190505981445e-01,9.478535652160644531e-01,1.637863636016845703e+00,9.718168973922729492e-01,-4.626119434833526611e-01,6.614513993263244629e-01,4.693778157234191895e-01,2.014491707086563110e-01,5.921637415885925293e-01,-5.674554109573364258e-01,1.593197435140609741e-01,8.320754170417785645e-01,-2.515679895877838135e-01,-3.848471641540527344e-01,-2.805113792419433594e-01,3.156858384609222412e-01,-1.461562216281890869e-01,1.080944180488586426e+00,1.868245840072631836e+00,9.440695643424987793e-01,-1.338596820831298828e+00,7.146407365798950195e-01
-3.805105388164520264e-01,-1.361778676509857178e-01,-2.704466693103313446e-02,-5.923179388046264648e-01,-9.030132889747619629e-01,-1.664400339126586914e+00,-1.357403516769409180e+00,6.130550503730773926e-01,1.351453900337219238e+00,-1.585541248321533203e+00,-5.082467198371887207e-01,-9.847233891487121582e-01,1.208599582314491272e-01,-2.069804668426513672e-01,-4.910407066345214844e-01,-1.457834601402282715e+00,1.358901500701904297e+00,1.710937023162841797e-01,-3.407799005508422852e-01,-1.957679033279418945e+00,-1.391406178474426270e+00,-3.977148234844207764e-01,-9.182572960853576660e-01,-2.699985802173614502e-01,-1.045282602310180664e+00,-1.058606505393981934e+00,-1.540714949369430542e-01,-4.933245182037353516e-01,-5.147012472152709961e-01,-4.439228177070617676e-01,4.405093193054199219e-01,8.387119174003601074e-01,-4.030276536941528320e-01,-1.501058220863342285e+00,-1.828057169914245605e+00,-9.698296785354614258e-01,-5.791421532630920410e-01,-2.143895328044891357e-01,-9.069477915763854980e-01,6.926977634429931641e-01,-3.125504851341247559e-01,5.185529217123985291e-02,4.633518755435943604e-01,2.888635694980621338e-01,-1.072294592857360840e+00,-1.006214022636413574e+00,-2.306588739156723022e-01,-6.285393834114074707e-01,-1.323759436607360840e+00,-5.154837369918823242e-01,2.101778835058212280e-01,-3.960703611373901367e-01,7.421491295099258423e-02,1.663034111261367798e-01,7.865831851959228516e-01,1.953142881393432617e-01,-2.795994877815246582e-01,-9.136481583118438721e-02,8.081816434860229492e-01,1.446531653404235840e+00,-1.706531643867492676e+00,-7.951872348785400391e-01,7.368513345718383789e-01,-2.267024815082550049e-01,-4.143130779266357422e-01,-8.762142062187194824e-01,7.854796648025512695e-01,1.829895019531250000e+00,4.488824307918548584e-01,1.560918688774108887e+00,-6.223469972610473633e-01,3.928381204605102539e-01,1.970983892679214478e-01,-1.364374440163373947e-02,-3.735987544059753418e-01,4.936185777187347412e-01,8.936627209186553955e-02,9.069197773933410645e-01,5.542498826980590820e-01,-1.256788611412048340e+00,6.346468329429626465e-01,9.021072834730148315e-02,4.144830405712127686e-01,-5.622471570968627930e-01,-7.891103029251098633e-01,1.322996616363525391e-01,-4.193393886089324951e-01,2.685303986072540283e-01,-2.454029917716979980e-01,-5.021535158157348633e-01,2.718220055103302002e-01,2.172641754150390625e+00,4.479581415653228760e-01,1.539675116539001465e+00,-4.183099269866943359e-01,1.258208304643630981e-01,9.392319321632385254e-01,5.474980473518371582e-01,-4.184280633926391602e-01,-8.278070688247680664e-01,4.783915877342224121e-01,4.501466453075408936e-01,-5.093895196914672852e-01,1.145255208015441895e+00,-7.675512880086898804e-02,1.289193391799926758e+00,1.193880677223205566e+00,-6.706643104553222656e-02,-1.061708033084869385e-01,-4.677576720714569092e-01,3.846069574356079102e-01,4.324252009391784668e-01,4.431281983852386475e-01,-1.130471453070640564e-01,4.532362818717956543e-01,-2.222962826490402222e-01,-2.492458820343017578e-01,1.627139300107955933e-01,-7.109860181808471680e-01,8.182146400213241577e-02,-3.818943500518798828e-01,4.472224414348602295e-01,2.961785793304443359e-01,3.605487644672393799e-01,-2.252059280872344971e-01,-9.193266928195953369e-02,8.549104332923889160e-01,7.436264157295227051e-01,1.919805407524108887e-01,1.763534359633922577e-02,3.286370635032653809e-01,9.048041701316833496e-02,3.431706130504608154e-01,3.473086059093475342e-01,5.822076201438903809e-01,5.628660917282104492e-01,7.391969561576843262e-01,-4.588313102722167969e-01,-1.198615908622741699e+00,-7.894745469093322754e-01,4.719559550285339355e-01,-1.552336513996124268e-01,-2.437551617622375488e-01,5.498169660568237305e-01,1.053098559379577637e+00,-8.823229372501373291e-02,7.615593075752258301e-01,-4.898573756217956543e-01,-7.120460271835327148e-01,-6.842949390411376953e-01,-3.462430238723754883e-01,-8.757359385490417480e-01,1.774626672267913818e-01,-1.484213352203369141e+00,-4.709678515791893005e-02,-2.123415470123291016e+00,-5.877491235733032227e-01,5.181671380996704102e-01,-9.588055312633514404e-02,-1.952942162752151489e-01,-6.692591905593872070e-01,7.752222418785095215e-01,-1.318769454956054688e-01,1.296084761619567871e+00,-6.100741028785705566e-01,-1.544835925102233887e+00,1.967285387217998505e-02,-4.115796983242034912e-01,5.221375823020935059e-01,-5.222628712654113770e-01,5.631436109542846680e-01,-3.407641649246215820e-01,-1.830222830176353455e-02,2.442286908626556396e-01,-1.862063556909561157e-01,2.086640000343322754e-01,-3.408436179161071777e-01,-3.697364032268524170e-01,-8.443945646286010742e-01,-9.465359449386596680e-01,7.733785510063171387e-01,-7.242707163095474243e-02,4.527297914028167725e-01,-1.669989705085754395e+00,-4.498891234397888184e-01,-4.501715898513793945e-01,-2.806161642074584961e-01,-8.088969588279724121e-01,1.161739453673362732e-01,3.413854241371154785e-01,-4.464257657527923584e-01,-6.418005228042602539e-01,-1.176005840301513672e+00,1.016465947031974792e-01,-2.284634858369827271e-01,3.515050113201141357e-01,-1.149338483810424805e-01,-1.138759493827819824e+00,-1.482237577438354492e+00,-2.941086888313293457e-01
1.557885557413101196e-01,-7.663471102714538574e-01,2.624966762959957123e-02,-1.041316866874694824e+00,7.836236953735351562e-01,-1.043116688728332520e+00,-6.752308011054992676e-01,1.640229970216751099e-01,-8.964090347290039062e-01,-3.491586446762084961e-01,2.003967911005020142e-01,3.591711223125457764e-01,-6.521718204021453857e-02,7.456809282302856445e-01,4.854646325111389160e-01,3.516081571578979492e-01,-7.903687953948974609e-01,-2.147360295057296753e-01,2.069015055894851685e-01,3.477233648300170898e-02,-1.016176819801330566e+00,2.120012044906616211e-01,8.300166130065917969e-01,6.551939249038696289e-01,1.491525322198867798e-01,6.168174743652343750e-01,-1.465356230735778809e+00,-3.749859929084777832e-01,-6.754803657531738281e-01,6.103373169898986816e-01,-6.588956713676452637e-01,-7.114547491073608398e-01,-3.775693774223327637e-01,1.648534417152404785e+00,-5.083284974098205566e-01,-9.919965267181396484e-02,3.852100670337677002e-02,-3.460733890533447266e-01,2.211111783981323242e-01,-1.986208319664001465e+00,-1.268319606781005859e+00,3.383596241474151611e-01,-2.984789848327636719e+00,-5.103955864906311035e-01,-6.896108388900756836e-02,-1.087952613830566406e+00,-1.669032275676727295e-01,4.290200173854827881e-01,9.295802712440490723e-01,-7.037402391433715820e-01,-8.706346154212951660e-01,6.483920216560363770e-01,1.264127612113952637e+00,-1.944863945245742798e-01,-1.215840503573417664e-01,-1.114400997757911682e-01,-4.990127980709075928e-01,-7.168782949447631836e-01,1.495805740356445312e+00,6.594343781471252441e-01,5.179653316736221313e-02,7.259086370468139648e-01,5.849319100379943848e-01,-7.284229397773742676e-01,-9.483440518379211426e-01,6.476472616195678711e-01,-3.641799390316009521e-01,1.010466888546943665e-01,4.062519371509552002e-01,-1.157325387001037598e+00,5.249392613768577576e-02,-1.166603088378906250e+00,4.649359583854675293e-01,1.207170709967613220e-01,-9.294088184833526611e-02,1.241314291954040527e+00,-4.005382359027862549e-01,6.090596914291381836e-01,-5.166445374488830566e-01,1.160453200340270996e+00,-2.324815094470977783e-01,4.017814993858337402e-01,-3.934623301029205322e-01,1.142151832580566406e+00,-5.354790687561035156e-01,-3.081889748573303223e-01,7.929292917251586914e-01,1.442327857017517090e+00,2.631184458732604980e-01,1.655143618583679199e+00,2.200669236481189728e-02,4.712007045745849609e-01,6.022962331771850586e-01,-1.449696898460388184e+00,1.090822577476501465e+00,-7.221087813377380371e-01,1.429141879081726074e+00,-6.124307513236999512e-01,-1.803692698478698730e+00,5.439438819885253906e-01,-2.660430669784545898e-01,2.053436189889907837e-01,-7.412673234939575195e-01,-6.169880032539367676e-01,5.642634630203247070e-01,3.295124471187591553e-01,-4.153000414371490479e-01,-2.394986748695373535e-01,-7.436657547950744629e-01,1.186455130577087402e+00,-2.257473617792129517e-01,4.652801156044006348e-01,-5.983217358589172363e-01,1.165284752845764160e+00,1.247224211692810059e+00,-8.768128156661987305e-01,-8.805758357048034668e-01,5.439801216125488281e-01,1.352946996688842773e+00,-3.433571159839630127e-01,-3.581782281398773193e-01,6.577732563018798828e-01,1.028426587581634521e-01,8.851524591445922852e-01,-5.825672298669815063e-02,6.883537769317626953e-01,-9.287130832672119141e-01,-6.713282465934753418e-01,-9.940546751022338867e-02,1.219369292259216309e+00,-7.152727842330932617e-01,6.814166307449340820e-01,-1.328597903251647949e+00,-5.910912156105041504e-01,4.940550029277801514e-01,-2.516599558293819427e-02,1.604520797729492188e+00,1.583639860153198242e+00,1.186402797698974609e+00,-3.271166980266571045e-01,-5.698778033256530762e-01,7.822434902191162109e-01,-4.789146482944488525e-01,1.494114279747009277e+00,6.280977129936218262e-01,-6.553735733032226562e-01,-1.811559915542602539e+00,-6.069620847702026367e-01,-2.430295646190643311e-01,-5.709508657455444336e-01,-5.690433979034423828e-01,1.129228234291076660e+00,-1.132229417562484741e-01,4.773990809917449951e-01,6.680368781089782715e-01,-1.447439789772033691e+00,-1.378498673439025879e+00,-6.650949120521545410e-01,-1.322218179702758789e+00,3.752896934747695923e-02,5.887960195541381836e-01,-3.901457488536834717e-01,-3.408257067203521729e-01,3.943761885166168213e-01,8.481536991894245148e-03,7.834115028381347656e-01,-9.053944945335388184e-01,-4.279225766658782959e-01,9.626232832670211792e-02,-2.246569693088531494e-01,5.774115212261676788e-03,2.457025498151779175e-01,4.286938309669494629e-01,4.572832584381103516e-01,1.044103577733039856e-01,1.105121709406375885e-02,-1.659692525863647461e+00,-8.233546614646911621e-01,1.663542509078979492e+00,6.907501816749572754e-01,3.584976792335510254e-01,7.789415717124938965e-01,-1.056580424308776855e+00,-9.033453464508056641e-02,-3.313606679439544678e-01,3.066163957118988037e-01,1.470950432121753693e-02,2.660088427364826202e-02,-1.058212891221046448e-01,1.033727884292602539e+00,-3.214611709117889404e-01,-7.947374582290649414e-01,-2.080855220556259155e-01,4.982982873916625977e-01,-8.278009891510009766e-01,1.882813125848770142e-01,4.002490267157554626e-02,3.463920950889587402e-02,1.473984718322753906e-01,3.428273797035217285e-01
1.089292287826538086e+00,-1.167049527168273926e+00,-4.283368885517120361e-01,-2.763997018337249756e-01,1.755925655364990234e+00,-1.085339114069938660e-01,-7.387463748455047607e-02,-4.244946241378784180e-01,-6.891598701477050781e-01,-1.491552144289016724e-01,2.395930886268615723e-01,1.456594765186309814e-01,8.543214797973632812e-01,9.464174509048461914e-01,6.205499172210693359e-01,-8.436183333396911621e-01,3.474581539630889893e-01,1.648636907339096069e-01,-8.934032320976257324e-01,-2.165688037872314453e+00,-7.168498635292053223e-01,-5.431519746780395508e-01,1.927273273468017578e+00,-3.672458529472351074e-01,2.344169378280639648e+00,-6.325120478868484497e-02,-8.710888773202896118e-02,-1.443462371826171875e-01,-2.146493941545486450e-01,1.276807665824890137e+00,3.148737922310829163e-02,1.250724315643310547e+00,1.025861382484436035e+00,7.250012755393981934e-01,-2.927657365798950195e-01,-9.254831820726394653e-02,1.250373005867004395e+00,5.115594863891601562e-01,-6.974460929632186890e-02,3.857719898223876953e-01,5.863711237907409668e-01,3.802811205387115479e-01,-1.583854407072067261e-01,4.171000123023986816e-01,-3.864821493625640869e-01,4.835312813520431519e-02,1.923796534538269043e+00,-1.747492104768753052e-01,-8.721360564231872559e-01,-5.069543719291687012e-01,9.220494031906127930e-01,-1.176154613494873047e+00,-5.922113060951232910e-01,-7.089904546737670898e-01,1.434980183839797974e-01,2.528712153434753418e-01,-5.908410549163818359e-01,-5.198005437850952148e-01,-9.228501915931701660e-01,-7.977534532546997070e-01,-2.532850019633769989e-03,-2.181564718484878540e-01,8.104726672172546387e-02,7.508419156074523926e-01,-4.448309540748596191e-01,-1.579886674880981445e+00,1.251817047595977783e-01,-2.286889076232910156e+00,-3.111402392387390137e-01,-6.047624945640563965e-01,-9.581720829010009766e-01,-5.379774570465087891e-01,1.682295680046081543e+00,2.623288147151470184e-02,1.213583070784807205e-02,-2.069551944732666016e-01,1.398244351148605347e-01,-4.981131553649902344e-01,-8.585236966609954834e-03,1.221731066703796387e+00,-1.445753335952758789e+00,-6.859120130538940430e-01,5.052486658096313477e-01,4.716482162475585938e-01,4.395298659801483154e-01,-1.482995152473449707e+00,7.443800568580627441e-01,4.386152327060699463e-01,-6.600496768951416016e-01,1.632618188858032227e+00,-6.331609189510345459e-02,8.857724070549011230e-01,5.263884663581848145e-01,6.060008406639099121e-01,2.773029804229736328e-01,-1.216020941734313965e+00,7.398328781127929688e-01,5.749707221984863281e-01,-2.953959703445434570e-01,9.528738260269165039e-01,5.874653458595275879e-01,1.414959281682968140e-01,1.071320846676826477e-01,-1.130365133285522461e+00,1.406949043273925781e+00,5.343001484870910645e-01,1.127325534820556641e+00,1.472726315259933472e-01,1.756517440080642700e-01,-5.933548212051391602e-01,-1.273434281349182129e+00,6.026483178138732910e-01,-1.443412542343139648e+00,-3.420061767101287842e-01,1.294646620750427246e+00,8.650097250938415527e-01,-7.217685878276824951e-02,1.309533566236495972e-01,1.522262334823608398e+00,-2.988404929637908936e-01,1.526159793138504028e-01,1.096332311630249023e+00,9.344549775123596191e-01,5.703132152557373047e-01,-9.791020750999450684e-01,5.197850987315177917e-02,-8.146570324897766113e-01,4.166824221611022949e-01,5.930918455123901367e-01,6.926680356264114380e-02,1.075485706329345703e+00,7.839258313179016113e-01,-1.482714414596557617e+00,-1.204236626625061035e+00,-9.562720358371734619e-02,5.095568895339965820e-01,-8.071454763412475586e-01,-5.047974586486816406e-01,-1.779453754425048828e+00,3.781272172927856445e-01,1.171798706054687500e+00,-1.092248678207397461e+00,1.612130999565124512e+00,6.882441788911819458e-02,8.434960842132568359e-01,-4.339087307453155518e-01,-1.604478955268859863e+00,-4.023532867431640625e-01,-1.312474906444549561e-01,3.665271699428558350e-01,5.107287764549255371e-01,5.596240162849426270e-01,-6.160404086112976074e-01,-3.737741708755493164e-01,1.571467518806457520e+00,1.149048935621976852e-02,6.760730743408203125e-01,-5.783250331878662109e-01,1.810655891895294189e-01,-3.751318454742431641e-01,-7.374252676963806152e-01,7.594187259674072266e-01,2.570876181125640869e-01,4.575132131576538086e-01,4.323976635932922363e-01,-8.124459981918334961e-01,5.044935345649719238e-01,4.884001314640045166e-01,1.630137562751770020e-01,-5.364215970039367676e-01,1.372343748807907104e-01,-7.511610984802246094e-01,9.975222945213317871e-01,-5.084067583084106445e-01,-6.775535941123962402e-01,-5.384077429771423340e-01,5.866333246231079102e-01,-1.007736399769783020e-01,8.801088929176330566e-01,1.402796387672424316e+00,1.174358963966369629e+00,-3.253529667854309082e-01,3.045039772987365723e-01,-7.460234314203262329e-02,7.080586552619934082e-01,8.529068827629089355e-01,-4.172404706478118896e-01,-1.343628019094467163e-01,1.648884639143943787e-02,4.329563081264495850e-01,7.593087553977966309e-01,-1.030107140541076660e+00,1.295929551124572754e-01,-9.949010610580444336e-01,4.317910671234130859e-01,-1.981863975524902344e+00,8.724982738494873047e-01,2.022349089384078979e-01,1.873469650745391846e-01,5.200774595141410828e-02
8.727896809577941895e-01,-2.884979248046875000e-01,1.290881991386413574e+00,-2.177200466394424438e-01,-6.629152297973632812e-01,-8.454921096563339233e-02,-5.925691723823547363e-01,1.369167268276214600e-01,-2.323104292154312134e-01,3.774905800819396973e-01,2.100076377391815186e-01,-1.306391209363937378e-01,2.625256776809692383e-01,-9.949738532304763794e-02,-8.750889897346496582e-01,-8.769579976797103882e-02,1.034910798072814941e+00,1.444589138031005859e+00,5.875874161720275879e-01,5.115047693252563477e-01,-1.647657513618469238e+00,9.548593163490295410e-01,-5.522620677947998047e-01,-1.904755592346191406e+00,2.372991293668746948e-02,4.224139153957366943e-01,1.088248610496520996e+00,1.076368451118469238e+00,-8.192471265792846680e-01,-3.466734886169433594e-01,8.397108316421508789e-01,-1.470409333705902100e-01,4.271038174629211426e-01,3.486577272415161133e-01,-3.438390791416168213e-01,1.601044684648513794e-01,7.414712309837341309e-01,-1.088071689009666443e-01,-8.449836373329162598e-01,-4.181105196475982666e-01,-2.296328544616699219e-01,8.916633129119873047e-01,8.454828262329101562e-01,-5.039709806442260742e-02,3.955166786909103394e-02,1.111957073211669922e+00,-7.895252108573913574e-01,-3.587782979011535645e-01,5.496802926063537598e-01,-1.429771304130554199e+00,9.829667955636978149e-02,2.365480661392211914e-01,3.982007503509521484e-01,-7.849091291427612305e-01,-1.336166501045227051e+00,1.092521190643310547e+00,-1.179954707622528076e-01,-1.221423670649528503e-01,-2.402914613485336304e-01,-4.721568897366523743e-02,-8.418852090835571289e-02,-4.896578192710876465e-01,5.275096893310546875e-01,5.628840923309326172e-01,2.901797294616699219e-01,8.265458345413208008e-01,1.184449553489685059e+00,-4.275517165660858154e-01,-6.839408874511718750e-01,3.660317957401275635e-01,-2.909072339534759521e-01,6.892495751380920410e-01,-1.509007334709167480e+00,-1.028255939483642578e+00,5.777412056922912598e-01,-7.127486467361450195e-01,9.761790037155151367e-01,2.064808756113052368e-01,-5.005303621292114258e-01,-7.738093137741088867e-01,1.490956425666809082e+00,-9.249219894409179688e-01,-1.503062546253204346e-01,1.349725872278213501e-01,-5.722280740737915039e-01,9.939088821411132812e-01,9.058012962341308594e-01,3.312073349952697754e-01,-6.710622310638427734e-01,-1.350326389074325562e-01,-2.847843468189239502e-01,5.773372650146484375e-01,-9.693943262100219727e-01,4.101617932319641113e-01,-1.050154685974121094e+00,2.457029581069946289e+00,-1.440334916114807129e+00,-2.315607368946075439e-01,1.196203947067260742e+00,-8.115962743759155273e-01,9.624091982841491699e-01,-6.144227981567382812e-01,-3.095121681690216064e-01,5.366197228431701660e-01,1.145220771431922913e-01,-2.307063043117523193e-01,-7.455296814441680908e-02,-1.567922383546829224e-01,-6.453502178192138672e-01,-8.018603920936584473e-01,-2.069798260927200317e-01,4.048061966896057129e-01,-2.898711562156677246e-01,4.849658310413360596e-01,1.530787497758865356e-01,-1.576002538204193115e-01,7.226602435111999512e-01,-1.663821786642074585e-01,3.672616481781005859e-01,-6.949139833450317383e-01,8.603209257125854492e-01,3.381776213645935059e-01,-1.055287241935729980e+00,-2.060188293457031250e+00,-6.108190417289733887e-01,-1.648461461067199707e+00,9.059208631515502930e-01,-5.801256299018859863e-01,1.953344941139221191e-01,5.439594388008117676e-01,6.977621912956237793e-01,-1.313177794218063354e-01,5.577744841575622559e-01,3.210261166095733643e-01,7.264592051506042480e-01,-2.881611585617065430e-01,1.875597238540649414e-01,4.954632818698883057e-01,-8.890466690063476562e-01,-4.553368985652923584e-01,-5.885550975799560547e-01,-6.625438332557678223e-01,-9.104271531105041504e-01,-1.324835658073425293e+00,2.766542136669158936e-01,8.064633607864379883e-01,6.920722723007202148e-01,-4.587829709053039551e-01,1.547985076904296875e+00,-2.799064815044403076e-01,2.978007495403289795e-01,9.033797383308410645e-01,-1.203997373580932617e+00,-2.597539126873016357e-01,-9.128363132476806641e-01,7.288807034492492676e-01,-2.288657277822494507e-01,-1.078433170914649963e-01,-1.018353581428527832e+00,1.459930837154388428e-02,-1.827922463417053223e-01,-2.506749588064849377e-04,1.573586016893386841e-01,-4.533779025077819824e-01,-6.866378784179687500e-01,4.108496904373168945e-01,-2.730472683906555176e-01,4.185668528079986572e-01,-3.913284838199615479e-01,1.571183651685714722e-01,1.012868165969848633e+00,6.248861923813819885e-02,-6.902359724044799805e-01,8.865326642990112305e-01,-2.206129729747772217e-01,-2.463979721069335938e-01,-2.595757879316806793e-02,1.321811676025390625e-01,-1.905731260776519775e-01,1.927762031555175781e-01,-2.975280880928039551e-01,-4.703439474105834961e-01,-3.003095090389251709e-01,-2.084091007709503174e-01,8.090449869632720947e-02,7.789740562438964844e-01,-4.924733936786651611e-02,-4.864215552806854248e-01,-7.559300661087036133e-01,1.013239860534667969e+00,2.159503847360610962e-01,-3.629812002182006836e-01,-7.780731916427612305e-01,-1.099175930023193359e+00,1.076333075761795044e-01,1.003737211227416992e+00,5.435190796852111816e-01,2.994452416896820068e-01,3.266673162579536438e-02,-4.996208548545837402e-01
7.909326553344726562e-01,1.069615706801414490e-01,1.020000457763671875e+00,8.367242217063903809e-01,-9.826901555061340332e-02,1.471849322319030762e+00,3.350895345211029053e-01,8.007555603981018066e-01,-7.190117835998535156e-01,-1.026142016053199768e-01,-2.165814340114593506e-01,3.732387721538543701e-01,-2.367053031921386719e-01,-7.911165058612823486e-02,1.142686679959297180e-01,8.192777633666992188e-01,-4.419182837009429932e-01,3.146451711654663086e-01,5.236421227455139160e-01,2.309595495462417603e-01,9.285455346107482910e-01,6.501135826110839844e-01,1.399696707725524902e+00,-1.368163339793682098e-02,5.354148149490356445e-01,1.544382929801940918e+00,1.907750517129898071e-01,9.576042294502258301e-01,1.290038973093032837e-01,1.470507502555847168e+00,8.492588996887207031e-01,-1.013606563210487366e-01,1.105686783790588379e+00,-3.738165497779846191e-01,1.603316962718963623e-01,-3.967401087284088135e-01,1.384699106216430664e+00,-8.437915444374084473e-01,7.771969437599182129e-01,8.763600587844848633e-01,-3.294620811939239502e-01,8.497152924537658691e-01,-4.969548285007476807e-01,8.926796913146972656e-02,1.131628528237342834e-01,5.850992798805236816e-01,1.013571619987487793e+00,7.063978314399719238e-01,9.866584837436676025e-02,8.600506782531738281e-01,-1.850365251302719116e-01,-1.154100179672241211e+00,-2.742693126201629639e-01,-1.007160186767578125e+00,-8.551148325204849243e-02,9.569231867790222168e-01,6.183097958564758301e-01,-6.507340669631958008e-01,-1.315043091773986816e+00,-2.977133989334106445e-01,-1.823858022689819336e-01,4.033470451831817627e-01,-7.930553555488586426e-01,1.719859004020690918e+00,2.040048837661743164e+00,8.261526823043823242e-01,-3.985421359539031982e-01,1.183317229151725769e-01,-1.648044958710670471e-02,1.731223165988922119e-01,7.959996908903121948e-02,9.073743820190429688e-01,7.463001012802124023e-01,-7.623249888420104980e-01,-4.592969417572021484e-01,-6.763662099838256836e-01,-3.277772963047027588e-01,5.360031127929687500e-01,-1.004834473133087158e-01,-3.783320784568786621e-01,-1.568725585937500000e+00,-1.964602768421173096e-01,3.717631697654724121e-01,-3.129124939441680908e-01,-5.408553779125213623e-02,-9.168465137481689453e-01,1.736468672752380371e-01,-4.487893879413604736e-01,-1.181788817048072815e-01,-5.657886862754821777e-01,-1.025605916976928711e+00,5.839811637997627258e-02,-8.738098144531250000e-01,-2.384878396987915039e-01,-1.161470293998718262e+00,3.705682158470153809e-01,-2.936706244945526123e-01,6.136854290962219238e-01,4.491934478282928467e-01,-4.886595159769058228e-02,3.925856649875640869e-01,-9.748248457908630371e-01,-1.698252111673355103e-01,7.668069005012512207e-02,4.112366586923599243e-02,7.835016250610351562e-01,1.168084703385829926e-02,-3.106209933757781982e-01,-6.573879718780517578e-01,-3.222045898437500000e-01,-2.699616253376007080e-01,3.211669027805328369e-01,9.898618459701538086e-01,1.071335598826408386e-01,6.460608839988708496e-01,-1.596553772687911987e-01,2.097489684820175171e-02,1.110036745667457581e-01,2.936064079403877258e-02,-7.709027528762817383e-01,8.876410126686096191e-02,9.449207037687301636e-02,-6.034123897552490234e-01,-2.865154445171356201e-01,-2.051801532506942749e-01,-1.798051595687866211e-01,-3.673842549324035645e-01,-1.337705850601196289e-01,-9.230307489633560181e-02,-3.859297335147857666e-01,1.352542340755462646e-01,1.009233742952346802e-01,-2.445626705884933472e-01,5.706052780151367188e-01,-5.816794466227293015e-03,-2.782641947269439697e-01,-3.911247551441192627e-01,-5.725952386856079102e-01,2.216758392751216888e-02,-2.547646462917327881e-01,-1.319795846939086914e-01,2.229245603084564209e-01,-1.814960718154907227e+00,4.073159694671630859e-01,-1.062558381818234921e-03,-3.742891848087310791e-01,-1.800454556941986084e-01,-6.275654435157775879e-01,-5.796809121966362000e-02,-6.690775156021118164e-01,9.003532528877258301e-01,1.052644491195678711e+00,-5.086465552449226379e-02,-1.368969529867172241e-01,1.157106012105941772e-01,9.004744291305541992e-01,1.369272112846374512e+00,5.280405879020690918e-01,-1.847277730703353882e-01,1.046882867813110352e+00,-5.582250952720642090e-01,9.699457287788391113e-01,5.310394763946533203e-01,-5.160531997680664062e-01,3.985141962766647339e-02,3.702436983585357666e-01,5.955196619033813477e-01,7.655863165855407715e-01,9.544945359230041504e-01,-2.886559665203094482e-01,-2.189085036516189575e-01,1.411390453577041626e-01,9.887619614601135254e-01,9.797430038452148438e-02,2.201076000928878784e-01,2.087953984737396240e-01,9.422011375427246094e-01,1.191236853599548340e+00,-6.577923893928527832e-02,3.452652096748352051e-01,2.644963264465332031e-01,1.384702920913696289e+00,6.649901270866394043e-01,1.053304553031921387e+00,5.425175428390502930e-01,1.599917262792587280e-01,7.502423524856567383e-01,1.149744540452957153e-02,3.342433273792266846e-01,2.147115617990493774e-01,4.791565835475921631e-01,2.920384109020233154e-01,5.876213312149047852e-01,1.248650923371315002e-01,7.684310078620910645e-01,-9.978430718183517456e-02,8.007491827011108398e-01,9.820743799209594727e-01,1.336534023284912109e+00,4.353810846805572510e-01
-3.753571957349777222e-02,-2.463411986827850342e-01,-1.351335197687149048e-01,-1.425961732864379883e+00,-1.058579802513122559e+00,-1.189103484153747559e+00,1.105543924495577812e-03,-1.112964391708374023e+00,4.085427522659301758e-01,1.702197790145874023e-01,2.243591239675879478e-03,-1.183670759201049805e+00,-1.395586133003234863e-01,-2.632389962673187256e-01,-1.252450346946716309e+00,-6.761994361877441406e-01,2.603273987770080566e-01,1.973000466823577881e-01,-3.547736704349517822e-01,-2.368428409099578857e-01,-2.945626378059387207e-01,-2.069496959447860718e-01,-1.200665459036827087e-01,1.039847373962402344e+00,-6.570093035697937012e-01,-1.068074926733970642e-01,-4.120688438415527344e-01,4.732483625411987305e-01,-5.326668173074722290e-02,-1.016625642776489258e+00,-1.381285190582275391e+00,-3.659396469593048096e-01,-4.250171780586242676e-01,1.517923474311828613e-01,-1.154719829559326172e+00,4.786492586135864258e-01,-9.142363071441650391e-01,3.554841279983520508e-01,-8.653510808944702148e-01,-1.314772844314575195e+00,2.126220762729644775e-01,-7.977819442749023438e-01,1.277154684066772461e+00,8.515951037406921387e-02,-3.890521824359893799e-01,-2.620597928762435913e-02,2.425314337015151978e-01,-4.642174839973449707e-01,-1.982544176280498505e-02,-8.523879051208496094e-01,7.740159034729003906e-01,-1.003677472472190857e-01,2.822961211204528809e-01,2.170607149600982666e-01,2.652242220938205719e-02,-3.668505549430847168e-01,6.020441055297851562e-01,-4.187210202217102051e-01,1.767681837081909180e-01,2.850066423416137695e-01,1.234672740101814270e-01,-4.258452653884887695e-01,-4.005335867404937744e-01,-1.119696021080017090e+00,-3.422849774360656738e-01,-1.038436070084571838e-01,3.714140653610229492e-01,9.974624514579772949e-01,-5.850299596786499023e-01,-1.680553197860717773e+00,1.820748299360275269e-01,-7.099989652633666992e-01,-4.000600278377532959e-01,1.017053484916687012e+00,6.011749505996704102e-01,5.051469206809997559e-01,3.250964581966400146e-01,-2.392143942415714264e-02,1.188606500625610352e+00,9.278763085603713989e-02,1.279918074607849121e+00,6.036530137062072754e-01,7.079759240150451660e-01,-2.623665630817413330e-01,-5.321530699729919434e-01,7.418484091758728027e-01,4.918274581432342529e-01,-1.414909362792968750e-01,2.961714752018451691e-02,-1.174899935722351074e+00,8.453446626663208008e-01,2.668120563030242920e-01,4.754324257373809814e-01,1.978526562452316284e-01,-7.398624420166015625e-01,6.332374215126037598e-01,2.484776496887207031e+00,-6.282914280891418457e-01,-2.318198978900909424e-01,-1.399702280759811401e-01,3.041594624519348145e-01,6.559762954711914062e-01,9.103640913963317871e-01,-8.214664459228515625e-01,1.012786507606506348e+00,4.387203752994537354e-01,-1.358061790466308594e+00,5.224732756614685059e-01,4.435892701148986816e-01,6.809533238410949707e-01,1.112143516540527344e+00,1.145008057355880737e-01,3.370688483119010925e-02,-1.620466709136962891e+00,-1.231562018394470215e+00,4.880645871162414551e-01,-1.540176477283239365e-02,1.024926751852035522e-01,7.772428393363952637e-01,-3.984109461307525635e-01,1.863964051008224487e-01,-4.896689355373382568e-01,4.451914131641387939e-01,1.351355552673339844e+00,-5.875697731971740723e-01,5.747083425521850586e-01,4.905366599559783936e-01,-6.965796928852796555e-03,-3.109102547168731689e-01,-8.599381446838378906e-01,1.201010346412658691e-01,4.740196764469146729e-01,-1.280212402343750000e-01,-7.872987389564514160e-01,7.245100736618041992e-01,1.179855585098266602e+00,-1.509154438972473145e-01,4.298360645771026611e-01,9.740892052650451660e-01,6.128693222999572754e-01,-1.017542928457260132e-01,1.224354058504104614e-01,7.559567689895629883e-01,3.475728929042816162e-01,2.947417199611663818e-01,1.374905943870544434e+00,-8.420404195785522461e-01,-3.209507167339324951e-01,-1.106022447347640991e-01,4.815375804901123047e-01,-1.012320280075073242e+00,-1.425957083702087402e+00,-1.119755148887634277e+00,5.842139124870300293e-01,-5.209358334541320801e-01,-1.096829056739807129e+00,-7.128793597221374512e-01,-9.938228130340576172e-01,-1.547860205173492432e-01,3.724662661552429199e-01,2.892274558544158936e-01,-5.004428029060363770e-01,-9.145668745040893555e-01,1.526385992765426636e-01,-6.801240444183349609e-01,-9.935278445482254028e-03,-5.732315778732299805e-01,-1.355451941490173340e+00,-1.009263515472412109e+00,-7.164699435234069824e-01,-2.411369085311889648e-01,-2.159425020217895508e-01,-5.903236269950866699e-01,9.543412923812866211e-01,-2.250164896249771118e-01,-1.726840287446975708e-01,-4.035951197147369385e-01,-1.368156075477600098e+00,-2.110315114259719849e-01,-3.788763582706451416e-01,-7.785713076591491699e-01,-1.468756496906280518e-01,8.343017101287841797e-01,-4.241659045219421387e-01,-1.488187015056610107e-01,-8.207573294639587402e-01,-3.048491775989532471e-01,-3.281679749488830566e-01,5.128360390663146973e-01,-1.150706648826599121e+00,-4.563263058662414551e-01,-9.136428236961364746e-01,2.016551047563552856e-01,-1.837183684110641479e-01,-1.089955449104309082e+00,5.819116830825805664e-01,-4.497126340866088867e-01,-1.838639825582504272e-01,-1.125724688172340393e-01,-4.981249272823333740e-01
1.425726860761642456e-01,-1.690352410078048706e-01,2.739272713661193848e-01,2.965599000453948975e-01,-8.843936920166015625e-01,-9.387408196926116943e-02,8.866976499557495117e-01,5.750027298927307129e-02,-6.472524404525756836e-01,8.162432312965393066e-01,-5.575664341449737549e-02,-4.645396173000335693e-01,-7.319836020469665527e-01,-4.012531638145446777e-01,6.787501573562622070e-01,-7.752454876899719238e-01,1.388480663299560547e+00,1.625423073768615723e+00,-1.065767526626586914e+00,-1.493546009063720703e+00,1.827683299779891968e-01,2.160428017377853394e-01,1.117376923561096191e+00,4.337214529514312744e-01,-1.353023499250411987e-01,1.953828036785125732e-01,9.363646507263183594e-01,4.848716035485267639e-02,-1.414326310157775879e+00,3.469318747520446777e-01,-1.004559040069580078e+00,-3.048723936080932617e-01,-7.024701237678527832e-01,6.363763809204101562e-01,2.172830551862716675e-01,-3.400788009166717529e-01,5.516238212585449219e-01,7.859080433845520020e-01,-4.529144465923309326e-01,-5.033473968505859375e-01,-5.900397896766662598e-01,5.773956775665283203e-01,1.066359877586364746e+00,1.061557650566101074e+00,2.021650075912475586e-01,2.835359610617160797e-02,-9.770913720130920410e-01,8.634654283523559570e-01,3.708679974079132080e-01,9.473747611045837402e-01,-6.405836939811706543e-01,6.015797257423400879e-01,6.066854298114776611e-02,-4.727499186992645264e-01,2.507399618625640869e-01,8.288881927728652954e-02,3.900220692157745361e-01,4.269171357154846191e-01,-1.006214380264282227e+00,-1.407415390014648438e+00,-2.695071697235107422e-01,-4.688226878643035889e-01,8.243772983551025391e-01,-5.543393492698669434e-01,1.044630408287048340e+00,-9.062683582305908203e-01,7.537276744842529297e-01,-4.365341365337371826e-01,-1.430593371391296387e+00,7.029152661561965942e-02,-3.212470710277557373e-01,-2.243218719959259033e-01,1.385125637054443359e+00,-9.799334406852722168e-02,2.178763389587402344e+00,3.071755170822143555e-01,9.221330881118774414e-01,-8.172611594200134277e-01,1.916972845792770386e-01,8.156970739364624023e-01,2.541950345039367676e-01,-7.288938164710998535e-01,-6.969106197357177734e-01,-3.017810285091400146e-01,-8.863576501607894897e-02,-1.845550894737243652e+00,-4.320993423461914062e-01,-1.325427770614624023e+00,1.754421740770339966e-03,-1.254849314689636230e+00,-7.969728112220764160e-01,3.539693355560302734e-01,1.452049463987350464e-01,7.055647373199462891e-01,-1.261351346969604492e+00,6.421616673469543457e-01,2.005203723907470703e+00,2.894993722438812256e-01,7.899350523948669434e-01,-4.275749921798706055e-01,-2.193966060876846313e-01,-3.918128609657287598e-01,5.869930386543273926e-01,-9.605764746665954590e-01,9.818153828382492065e-02,3.545067012310028076e-01,-1.093119025230407715e+00,-4.708238542079925537e-01,3.682629019021987915e-02,-1.103540897369384766e+00,-6.793599724769592285e-01,2.827482484281063080e-02,8.759789466857910156e-01,-1.011224627494812012e+00,-1.460301637649536133e+00,-2.992425262928009033e-01,7.691158056259155273e-01,1.642811447381973267e-01,1.337452292442321777e+00,-4.460493028163909912e-01,2.757453620433807373e-01,-1.289250701665878296e-01,3.663342297077178955e-01,-3.720681369304656982e-01,1.392326802015304565e-01,1.172427773475646973e+00,8.141705393791198730e-01,5.072617530822753906e-01,7.035558819770812988e-01,-1.165544271469116211e+00,-1.408028125762939453e+00,-9.616686701774597168e-01,5.221422314643859863e-01,-2.767583727836608887e-01,1.752880573272705078e+00,7.630700618028640747e-02,-8.901818394660949707e-01,2.284219563007354736e-01,7.373414039611816406e-01,-1.058092594146728516e+00,-2.655641138553619385e-01,-7.005196809768676758e-01,-3.493659794330596924e-01,4.368159174919128418e-01,1.280320405960083008e+00,1.378391504287719727e+00,-1.061599969863891602e+00,1.987638473510742188e-01,3.177889585494995117e-01,-8.732151389122009277e-01,-5.987473577260971069e-02,6.375700831413269043e-01,-6.034422516822814941e-01,1.826814055442810059e+00,-4.212833940982818604e-01,4.069242179393768311e-01,1.722219347953796387e+00,6.412231177091598511e-02,-2.825152873992919922e-01,-1.504118084907531738e+00,-2.872017920017242432e-01,1.092863559722900391e+00,-9.073295593261718750e-01,-4.794371128082275391e-01,5.510469079017639160e-01,-3.199509680271148682e-01,-2.171967178583145142e-01,-6.578318476676940918e-01,3.758354187011718750e-01,8.120374083518981934e-01,-1.741323471069335938e-01,7.944199442863464355e-01,1.329042315483093262e+00,5.787549614906311035e-01,8.626214265823364258e-01,-1.075956821441650391e+00,1.972848892211914062e+00,-5.836129784584045410e-01,-2.771337628364562988e-01,5.661662817001342773e-01,4.911111295223236084e-01,5.544095635414123535e-01,-8.070091158151626587e-02,-7.440944314002990723e-01,4.901484251022338867e-01,-8.760448098182678223e-01,3.206507444381713867e+00,6.053660064935684204e-02,-3.932514190673828125e-01,-1.319198369979858398e+00,-5.309184193611145020e-01,7.675465941429138184e-01,-5.017477273941040039e-01,-3.648268803954124451e-02,-3.791917860507965088e-01,4.212062358856201172e-01,7.492666840553283691e-01,-1.289870589971542358e-02,1.510333895683288574e+00,3.600811362266540527e-01
1.446394324302673340e+00,1.864700168371200562e-01,-2.315143346786499023e-01,2.885450720787048340e-01,1.053162217140197754e+00,6.340545415878295898e-01,-1.254396677017211914e+00,-5.977236628532409668e-01,-9.504570960998535156e-01,7.204875349998474121e-01,5.674555301666259766e-01,1.446831583976745605e+00,5.933495163917541504e-01,6.772568225860595703e-01,1.030905127525329590e+00,2.302233576774597168e-01,1.213991880416870117e+00,9.183295071125030518e-02,6.134887412190437317e-02,-3.767913281917572021e-01,6.032342091202735901e-02,-7.359882444143295288e-02,7.313615679740905762e-01,-9.933347702026367188e-01,1.630942225456237793e+00,2.144629657268524170e-01,-9.891362786293029785e-01,-8.775666356086730957e-01,1.477797795087099075e-02,-1.454898901283740997e-02,-2.532227337360382080e-02,-2.320401929318904877e-02,9.842095375061035156e-01,8.712027072906494141e-01,6.825421452522277832e-01,5.021885037422180176e-01,1.407642483711242676e+00,1.077970303595066071e-02,-4.978990554809570312e-01,-1.284451484680175781e+00,-2.599950730800628662e-01,-2.494687139987945557e-01,6.851192712783813477e-01,-8.825977891683578491e-02,7.139930725097656250e-01,7.755430936813354492e-01,-3.346855938434600830e-01,7.537006139755249023e-01,-1.310352921485900879e+00,6.702057719230651855e-01,3.497521206736564636e-02,-8.532144129276275635e-02,-1.363022685050964355e+00,-5.180608034133911133e-01,1.191825866699218750e+00,1.125950962305068970e-01,-1.209968566894531250e+00,3.760557472705841064e-01,-1.452470541000366211e+00,-4.660799503326416016e-01,7.288392782211303711e-01,1.548393607139587402e+00,-6.585202366113662720e-02,1.060322523117065430e+00,1.430846691131591797e+00,-3.013517558574676514e-01,-7.603111863136291504e-02,-1.709781050682067871e+00,-3.740449622273445129e-02,-1.060850501060485840e+00,-1.046270206570625305e-01,-7.278074622154235840e-01,4.240148961544036865e-01,-7.429053783416748047e-01,-1.532884836196899414e+00,6.626747250556945801e-01,-1.863686740398406982e-01,-1.243108272552490234e+00,-4.513123929500579834e-01,6.109317541122436523e-01,-1.166380047798156738e+00,-8.191832900047302246e-02,7.938223481178283691e-01,6.138844490051269531e-01,1.574450135231018066e+00,-4.506984651088714600e-01,-3.722043633460998535e-01,8.203085660934448242e-01,-2.741684615612030029e-01,1.138331651687622070e+00,-7.329034805297851562e-02,-1.736496448516845703e+00,4.490113258361816406e-01,-1.355942368507385254e+00,6.718977689743041992e-01,-1.406466126441955566e+00,-5.669329166412353516e-01,1.036528706550598145e+00,-9.929723143577575684e-01,6.036334484815597534e-02,-1.022618412971496582e-01,1.805308461189270020e-01,5.091184750199317932e-03,-5.243922472000122070e-01,-7.112836241722106934e-01,-2.564488351345062256e-01,1.337989211082458496e+00,-6.009929776191711426e-01,-6.482869982719421387e-01,-2.646233439445495605e-01,-1.541189074516296387e+00,6.863631010055541992e-01,-2.036901473999023438e+00,2.341886758804321289e-01,6.814773082733154297e-01,9.700725078582763672e-01,-2.787129878997802734e-01,7.179306745529174805e-01,-1.295255422592163086e+00,9.823902845382690430e-01,-7.465609312057495117e-01,1.361209869384765625e+00,3.800206184387207031e-01,-4.118330478668212891e-01,6.131248474121093750e-01,1.345702707767486572e-01,-1.532380938529968262e+00,2.873267531394958496e-01,8.864895701408386230e-01,1.045566439628601074e+00,9.654944539070129395e-01,7.853035330772399902e-01,-7.354418039321899414e-01,1.370800007134675980e-02,2.030674517154693604e-01,2.066728621721267700e-01,-6.712746620178222656e-01,1.253620862960815430e+00,-8.665820360183715820e-01,-8.500204086303710938e-01,-1.045922935009002686e-01,-7.561315298080444336e-01,6.638630628585815430e-01,-1.174883484840393066e+00,2.185746580362319946e-01,3.218913376331329346e-01,-1.576863825321197510e-01,1.498604565858840942e-01,-1.091228500008583069e-01,1.633667349815368652e-01,-1.331481188535690308e-01,1.242801904678344727e+00,1.909907758235931396e-01,1.118985772132873535e+00,7.683306336402893066e-01,1.266014575958251953e+00,-1.695552468299865723e-02,-6.401519775390625000e-01,-5.008726119995117188e-01,1.142956137657165527e+00,-9.532572031021118164e-01,1.171228766441345215e+00,8.758916854858398438e-01,1.735961288213729858e-01,8.403555750846862793e-01,3.520296812057495117e-01,-1.351371686905622482e-02,7.179549336433410645e-01,5.072912201285362244e-02,4.633621573448181152e-01,4.988391697406768799e-01,-7.027778308838605881e-03,4.354413151741027832e-01,-7.737836837768554688e-01,-1.373521685600280762e+00,9.383541345596313477e-01,-1.703581809997558594e-01,1.121504187583923340e+00,-2.824051082134246826e-01,3.508198559284210205e-01,1.111244440078735352e+00,1.116340398788452148e+00,8.446362018585205078e-01,1.059838891029357910e+00,1.238061666488647461e+00,4.543685615062713623e-01,-5.828002095222473145e-01,8.178317546844482422e-01,-1.101686581969261169e-01,6.998736858367919922e-01,6.385403871536254883e-01,-4.965713620185852051e-01,-5.632942318916320801e-01,-6.388852596282958984e-01,1.749433159828186035e+00,-3.437047004699707031e-01,7.559364438056945801e-01,-3.542723655700683594e-01,5.448937416076660156e-01,7.035990357398986816e-01
2.778976857662200928e-01,-2.338498085737228394e-01,-1.009436607360839844e+00,-2.359515666961669922e+00,-6.937611103057861328e-01,-2.802341282367706299e-01,-1.458708763122558594e+00,2.885094881057739258e-01,-3.745823204517364502e-01,-6.595231294631958008e-01,-7.259192466735839844e-01,3.120864927768707275e-01,1.159372702240943909e-01,4.289825856685638428e-01,3.029384911060333252e-01,1.652374744415283203e+00,-8.377919904887676239e-03,-3.613157272338867188e-01,-4.776097238063812256e-01,1.609786868095397949e+00,-1.308462172746658325e-01,2.759479880332946777e-01,1.347264796495437622e-01,-7.059483975172042847e-02,-7.282952666282653809e-01,-9.448234736919403076e-02,7.827571034431457520e-01,-5.678799003362655640e-03,1.018490120768547058e-01,3.817419707775115967e-01,-2.503180801868438721e-01,2.306116521358489990e-01,1.785234689712524414e+00,-4.714722633361816406e-01,9.394713044166564941e-01,1.037056088447570801e+00,8.356486260890960693e-02,8.187530636787414551e-01,-1.255580037832260132e-01,3.290010988712310791e-02,-2.811174392700195312e-01,1.100915819406509399e-01,-2.204713582992553711e+00,1.120932459831237793e+00,1.444348931312561035e+00,7.356450557708740234e-01,-1.156186982989311218e-01,8.912361264228820801e-01,-2.267710119485855103e-01,-5.410732626914978027e-01,1.026646733283996582e+00,1.388723775744438171e-02,8.794652223587036133e-01,9.442622661590576172e-01,2.716504931449890137e-01,-1.781424283981323242e+00,-7.629879713058471680e-01,-5.808086395263671875e-01,1.179402232170104980e+00,1.489384531974792480e+00,-4.045290350914001465e-01,1.146420016884803772e-01,-2.272840887308120728e-01,-6.974204778671264648e-01,-6.439693570137023926e-01,7.096819281578063965e-01,5.497729182243347168e-01,-6.877042353153228760e-02,-1.214278861880302429e-01,1.056442022323608398e+00,-5.220600366592407227e-01,5.167751312255859375e-01,-2.912800014019012451e-01,3.132245037704706192e-04,-4.565584063529968262e-01,7.506145536899566650e-02,1.368372559547424316e+00,7.277336716651916504e-01,3.018480241298675537e-01,-6.976189017295837402e-01,7.916701026260852814e-03,-1.022393465042114258e+00,-1.739676892757415771e-01,1.029273271560668945e-01,4.762814044952392578e-01,-4.247792661190032959e-01,-5.349206551909446716e-02,-2.970778644084930420e-01,-1.546224486082792282e-02,-2.853459715843200684e-01,3.588381707668304443e-01,1.109199881553649902e+00,5.072023347020149231e-02,6.692421436309814453e-01,1.286676645278930664e+00,-1.523512005805969238e-01,-5.988146066665649414e-01,4.568708837032318115e-01,-2.165611028671264648e+00,-1.341548562049865723e+00,3.758410215377807617e-01,5.337944999337196350e-02,4.888156652450561523e-01,1.381624221801757812e+00,-1.342402696609497070e+00,3.524492681026458740e-01,4.070189297199249268e-01,8.242844939231872559e-01,8.377712965011596680e-02,-8.101165294647216797e-01,1.043872594833374023e+00,7.848585844039916992e-01,6.674365997314453125e-01,-5.449342727661132812e-01,4.851989448070526123e-01,-1.457271575927734375e-01,-4.123580157756805420e-01,4.494505822658538818e-01,-4.014154076576232910e-01,7.264764904975891113e-01,-6.376600861549377441e-01,-5.785486698150634766e-01,-1.246517419815063477e+00,-7.375794649124145508e-02,-1.332048296928405762e+00,-1.829041540622711182e-01,1.570878326892852783e-01,-1.833698600530624390e-01,-2.369685322046279907e-01,6.299870014190673828e-01,-4.770787060260772705e-02,5.097655057907104492e-01,6.650784015655517578e-01,1.639532446861267090e-01,-6.454180479049682617e-01,-5.825669765472412109e-01,1.357274055480957031e+00,9.098613858222961426e-01,-2.102623581886291504e-01,-1.935070455074310303e-01,-1.704625226557254791e-02,4.354485273361206055e-01,-1.430554628372192383e+00,7.337262630462646484e-01,1.277910321950912476e-01,-1.314923316240310669e-01,1.045038700103759766e+00,1.442058682441711426e-01,8.158426284790039062e-01,3.036155924201011658e-02,6.101674437522888184e-01,1.360259205102920532e-01,7.006056308746337891e-01,-1.476420879364013672e+00,-1.640326529741287231e-01,2.225055098533630371e-01,-4.114125296473503113e-02,8.280186057090759277e-01,-4.435189068317413330e-01,-1.343058109283447266e+00,-3.768294155597686768e-01,1.096669912338256836e+00,1.468822717666625977e+00,5.706636905670166016e-01,1.542373448610305786e-01,-7.861312627792358398e-01,-1.574750542640686035e-01,1.130636334419250488e-01,-3.559946119785308838e-01,-2.639714479446411133e-01,3.883055150508880615e-01,5.187889337539672852e-01,-3.031451702117919922e-01,8.654263615608215332e-01,-9.963554143905639648e-01,-1.815793961286544800e-01,9.318000078201293945e-01,-1.796097606420516968e-01,9.694877862930297852e-01,-1.761275231838226318e-01,-2.811734378337860107e-01,6.444093585014343262e-01,6.263655424118041992e-02,-4.738619327545166016e-01,-7.086257934570312500e-01,-1.093434169888496399e-01,-5.250232219696044922e-01,1.097267031669616699e+00,5.232055187225341797e-01,-1.920571029186248779e-01,-1.050031110644340515e-01,-1.632288247346878052e-01,8.495315164327621460e-02,9.286344647407531738e-01,8.524256944656372070e-01,6.483648419380187988e-01,1.895682662725448608e-01,-2.058832496404647827e-01,-1.526935577392578125e+00,-1.052478790283203125e+00
-2.208389490842819214e-01,7.318449616432189941e-01,6.716863512992858887e-01,7.806123495101928711e-01,2.633427143096923828e+00,-3.473969921469688416e-02,-6.828058362007141113e-01,1.282926797866821289e-01,-7.454916834831237793e-01,1.327598374336957932e-02,-1.969149112701416016e-01,-4.288406670093536377e-02,-6.001341938972473145e-01,3.382721245288848877e-01,2.253959178924560547e-01,8.119997382164001465e-02,2.229202687740325928e-01,-1.458725333213806152e-01,1.783601939678192139e-01,4.083439335227012634e-02,5.548865199089050293e-01,-1.837130188941955566e-01,7.444288134574890137e-01,-5.998724102973937988e-01,4.278291761875152588e-02,1.062698602676391602e+00,-1.853445172309875488e-02,-7.527442574501037598e-01,-1.901558637619018555e-01,3.723312616348266602e-01,5.172746777534484863e-01,-2.093455642461776733e-01,6.563732028007507324e-01,4.059068262577056885e-01,-2.733139395713806152e-01,-5.504142865538597107e-02,6.973080635070800781e-01,3.651982545852661133e-01,1.100235581398010254e+00,-5.699246525764465332e-01,9.307453632354736328e-01,-1.092743873596191406e-02,4.174037277698516846e-01,1.241588473320007324e+00,-1.771477937698364258e+00,4.081818759441375732e-01,1.178041338920593262e+00,-9.879329204559326172e-01,7.598125189542770386e-02,1.188051104545593262e-01,6.946601867675781250e-01,4.285776317119598389e-01,-1.776948273181915283e-01,-7.055000066757202148e-01,2.371307611465454102e+00,-4.616563916206359863e-01,-9.642676711082458496e-01,-5.120805501937866211e-01,-9.771587252616882324e-01,7.861425168812274933e-03,5.591070652008056641e-01,-3.936607837677001953e-01,-8.278246521949768066e-01,9.904637932777404785e-01,-8.572150021791458130e-02,3.633539378643035889e-02,-1.814930289983749390e-01,-7.804598212242126465e-01,2.429419010877609253e-01,-4.307549595832824707e-01,6.782719492912292480e-01,-2.635534405708312988e-01,1.451568752527236938e-01,-5.982795953750610352e-01,-6.363365650177001953e-01,-4.850091338157653809e-01,6.673463582992553711e-01,-1.559966206550598145e+00,8.188887834548950195e-01,-1.255339145660400391e+00,4.742550253868103027e-01,-3.722725510597229004e-01,5.572816729545593262e-01,4.278082773089408875e-02,-3.822714686393737793e-01,-7.690241336822509766e-01,-3.442364037036895752e-01,2.452147454023361206e-01,1.150793433189392090e-01,-6.249933689832687378e-02,1.035951733589172363e+00,-5.499752163887023926e-01,4.780723154544830322e-01,-8.499300479888916016e-01,-6.335396766662597656e-01,-2.955016493797302246e-01,-1.901570200920104980e+00,-6.578693389892578125e-01,4.521150290966033936e-01,9.506993293762207031e-01,-2.904635071754455566e-01,1.758152693510055542e-01,3.082118928432464600e-01,-9.715414643287658691e-01,1.049637198448181152e+00,8.731163144111633301e-01,-1.346216052770614624e-01,6.229401826858520508e-01,1.148561164736747742e-01,-6.744772195816040039e-01,1.585347652435302734e+00,1.517930984497070312e+00,-6.571921110153198242e-01,-3.033657371997833252e-01,-3.784085810184478760e-01,4.669246077537536621e-01,-2.051548212766647339e-01,1.105889379978179932e-01,-4.811343848705291748e-01,-8.099249005317687988e-01,1.633925795555114746e+00,8.668125867843627930e-01,8.595668077468872070e-01,-6.360229253768920898e-01,-1.128927946090698242e+00,-7.736195921897888184e-01,-7.620155215263366699e-01,1.555765390396118164e+00,7.955503463745117188e-01,1.256732940673828125e-01,1.022497296333312988e+00,9.387367963790893555e-01,-1.083350777626037598e-01,6.304777264595031738e-01,9.228541254997253418e-01,1.113216131925582886e-01,-1.295273661613464355e+00,5.645247697830200195e-01,2.174996435642242432e-01,1.061416745185852051e+00,6.179592609405517578e-01,-3.539757430553436279e-01,2.939344942569732666e-01,-7.001960873603820801e-01,1.103474855422973633e+00,-9.157754182815551758e-01,2.167792469263076782e-01,-4.549175500869750977e-01,7.580537199974060059e-01,2.707902193069458008e-01,4.569006562232971191e-01,1.058649539947509766e+00,-1.177369058132171631e-01,-1.867190599441528320e-01,2.900492906570434570e+00,-5.901809930801391602e-01,2.898472249507904053e-01,-3.809720575809478760e-01,2.307712435722351074e-01,1.336186647415161133e+00,-3.516120314598083496e-01,5.732562541961669922e-01,1.202490106225013733e-01,2.166084498167037964e-01,-2.555257081985473633e-01,2.278595864772796631e-01,6.622413992881774902e-01,9.151982069015502930e-01,-4.094925895333290100e-02,-6.762259602546691895e-01,2.430681735277175903e-01,-4.503914415836334229e-01,1.122224688529968262e+00,-3.743727207183837891e-01,5.090901851654052734e-01,-5.767859816551208496e-01,6.776375770568847656e-01,-8.078809976577758789e-01,9.486664533615112305e-01,-3.215624988079071045e-01,1.161922454833984375e+00,7.960671186447143555e-01,-5.777683854103088379e-02,5.663541555404663086e-01,7.438865303993225098e-01,6.528510451316833496e-01,1.147633433341979980e+00,-3.667860329151153564e-01,1.633267879486083984e+00,-5.319193005561828613e-01,8.899088501930236816e-01,-1.670882999897003174e-01,1.862807631492614746e+00,-1.090479731559753418e+00,5.263116359710693359e-01,-1.039308547973632812e+00,1.222618103027343750e+00,-9.256443977355957031e-01,7.314007878303527832e-01,-6.017280369997024536e-02
-4.712294638156890869e-01,-2.071031332015991211e+00,2.624180316925048828e-01,8.387815356254577637e-01,1.213744997978210449e+00,1.080459713935852051e+00,-1.100826263427734375e+00,1.763002395629882812e+00,1.401528865098953247e-01,-2.216599434614181519e-01,1.357975304126739502e-01,-1.735466003417968750e+00,-4.485677480697631836e-01,-5.637171864509582520e-01,5.779515504837036133e-01,-4.619026482105255127e-01,1.275342553853988647e-01,1.260959386825561523e+00,4.693949818611145020e-01,8.624711036682128906e-01,4.065070450305938721e-01,1.384049952030181885e-01,5.195700526237487793e-01,-6.150886416435241699e-01,-4.299431145191192627e-01,-6.893642544746398926e-01,6.294772028923034668e-01,-5.582140088081359863e-01,-1.263610243797302246e+00,-1.052504658699035645e+00,4.145149290561676025e-01,-2.020063698291778564e-01,-4.506244063377380371e-01,6.873602271080017090e-01,1.826351433992385864e-01,-3.043157160282135010e-01,-1.163346096873283386e-01,4.283047467470169067e-02,1.136964797973632812e+00,5.802731513977050781e-01,-5.323708653450012207e-01,3.226308822631835938e-01,-1.649212598800659180e+00,-1.071745082736015320e-01,-2.888031899929046631e-01,-3.150918185710906982e-01,-4.202719330787658691e-01,6.808330416679382324e-01,-2.719089686870574951e-01,5.117050409317016602e-01,-9.167213439941406250e-01,-2.216249942779541016e+00,-4.707118868827819824e-02,1.461264938116073608e-01,4.953991770744323730e-01,1.601334810256958008e+00,-1.967503130435943604e-01,1.453862667083740234e+00,5.389856696128845215e-01,5.156483650207519531e-01,2.504793107509613037e-01,-7.151984572410583496e-01,1.911685615777969360e-02,1.310662150382995605e+00,1.265872955322265625e+00,5.895713567733764648e-01,7.125617004930973053e-03,-3.388763368129730225e-01,-4.464713111519813538e-02,7.665664553642272949e-01,-2.212332785129547119e-01,1.104224085807800293e+00,3.026560246944427490e-01,-5.599740147590637207e-01,-8.473167419433593750e-01,-9.185807704925537109e-01,2.107161097228527069e-02,-8.659391850233078003e-02,-1.985597163438796997e-01,-4.589478671550750732e-01,2.786293327808380127e-01,7.240219712257385254e-01,-9.546221494674682617e-01,1.045662611722946167e-01,5.759899616241455078e-01,-3.840855062007904053e-01,-1.376871466636657715e+00,-2.937529087066650391e-01,1.286176800727844238e+00,8.900801539421081543e-01,-6.168180704116821289e-01,-1.003187775611877441e+00,9.195651113986968994e-02,-1.699426621198654175e-01,9.927117824554443359e-02,7.330944538116455078e-01,-7.605901360511779785e-01,5.090159773826599121e-01,2.646619379520416260e-01,-4.984532296657562256e-01,1.558403730392456055e+00,-2.084043025970458984e+00,1.531798839569091797e-01,-7.366628944873809814e-02,-2.102791666984558105e-01,-3.692633509635925293e-01,1.233602762222290039e+00,-1.721040487289428711e+00,8.711456656455993652e-01,-8.647896051406860352e-01,-8.051715493202209473e-01,4.026815295219421387e-02,-6.976336836814880371e-01,-1.030569779686629772e-03,-2.903354912996292114e-02,3.055209517478942871e-01,4.650100171566009521e-01,-3.596591949462890625e-01,7.765101194381713867e-01,3.244068622589111328e-01,-5.345265567302703857e-02,-1.186014175415039062e+00,-4.200297892093658447e-01,-1.576576948165893555e+00,1.658158153295516968e-01,-1.207095161080360413e-01,-7.794167846441268921e-02,6.736634373664855957e-01,5.180474370718002319e-02,-1.882994733750820160e-02,6.748517155647277832e-01,-1.618246555328369141e+00,1.390029311180114746e+00,4.598472714424133301e-01,1.358462810516357422e+00,-1.639542430639266968e-01,4.800354316830635071e-02,2.620138823986053467e-01,5.810866355895996094e-01,-6.129660010337829590e-01,7.713275551795959473e-01,-2.415490150451660156e-01,-1.570419073104858398e+00,-2.532099187374114990e-01,6.060948967933654785e-01,-2.049315348267555237e-02,1.177418470382690430e+00,-3.045482635498046875e-01,3.248909115791320801e-01,-2.141684055328369141e+00,7.257441431283950806e-02,5.577973127365112305e-01,-3.405115604400634766e-01,-1.453975290060043335e-01,1.065432667732238770e+00,-5.871631950139999390e-02,-5.908612161874771118e-03,1.250303387641906738e+00,5.457696914672851562e-01,4.375949501991271973e-01,2.874369919300079346e-01,3.636969625949859619e-01,-4.088323712348937988e-01,-8.630068600177764893e-02,5.564351081848144531e-01,-1.318095028400421143e-01,1.161308288574218750e+00,6.870037913322448730e-01,3.575960099697113037e-01,9.729905128479003906e-01,1.033077001571655273e+00,2.932876348495483398e-01,7.607510089874267578e-01,6.599579453468322754e-01,-8.300083875656127930e-01,-7.392420172691345215e-01,5.680981874465942383e-01,3.063541650772094727e-01,-2.255912683904170990e-02,-1.302768468856811523e+00,6.588789820671081543e-01,1.361823439598083496e+00,-3.101565837860107422e-01,4.155967235565185547e-01,-9.233103133738040924e-03,3.545542359352111816e-01,-3.218873441219329834e-01,2.656078934669494629e-01,8.597055077552795410e-01,1.887321352958679199e+00,4.836607575416564941e-01,5.197049975395202637e-01,5.863438844680786133e-01,8.712022751569747925e-02,-3.260936439037322998e-01,-2.321558594703674316e-01,2.790108621120452881e-01,3.044847548007965088e-01,4.674822092056274414e-01,3.097620904445648193e-01
